{"learner":{"attributes":{"best_iteration":"99","best_ntree_limit":"100","scikit_learn":"{\"n_estimators\": 100, \"objective\": \"reg:squarederror\", \"max_depth\": 6, \"max_leaves\": null, \"max_bin\": null, \"grow_policy\": null, \"learning_rate\": 0.1, \"verbosity\": null, \"booster\": \"gbtree\", \"tree_method\": null, \"gamma\": 0, \"min_child_weight\": 1, \"max_delta_step\": null, \"subsample\": null, \"sampling_method\": null, \"colsample_bytree\": 1, \"colsample_bylevel\": null, \"colsample_bynode\": null, \"reg_alpha\": null, \"reg_lambda\": null, \"scale_pos_weight\": null, \"base_score\": null, \"missing\": NaN, \"num_parallel_tree\": null, \"random_state\": null, \"n_jobs\": null, \"monotone_constraints\": null, \"interaction_constraints\": null, \"importance_type\": null, \"gpu_id\": null, \"validate_parameters\": null, \"predictor\": null, \"enable_categorical\": false, \"feature_types\": null, \"max_cat_to_onehot\": null, \"max_cat_threshold\": null, \"eval_metric\": null, \"early_stopping_rounds\": null, \"callbacks\": null, \"kwargs\": {\"lambda\": 1, \"alpha\": 0}, \"performance_metrics\": {\"MSE\": 0.04282532929265596, \"MAE\": 0.16180980776184728, \"MAPE\": 274.93155690006586, \"RMSE\": 0.20135606986899707}, \"_estimator_type\": \"regressor\"}"},"feature_names":["day_10","day_11","day_12","day_13","day_14","day_15","day_16","day_17","day_18","day_19","day_2","day_20","day_21","day_22","day_23","day_3","day_4","day_5","day_6","day_7","day_8","day_9","hour_0","hour_1","hour_10","hour_11","hour_12","hour_13","hour_14","hour_15","hour_16","hour_17","hour_18","hour_19","hour_2","hour_20","hour_21","hour_22","hour_23","hour_3","hour_4","hour_5","hour_6","hour_7","hour_8","hour_9","prevDay_actual","prevDay_min","prevHour_actual","prevHour_min","week_of_year_1","week_of_year_2","week_of_year_3","week_of_year_4","weekday_0","weekday_1","weekday_2","weekday_3","weekday_4","weekday_5","weekday_6"],"feature_types":["float","float","float","float","float","float","float","float","float","float","float","float","float","float","float","float","float","float","float","float","float","float","float","float","float","float","float","float","float","float","float","float","float","float","float","float","float","float","float","float","float","float","float","float","float","float","float","float","float","float","float","float","float","float","float","float","float","float","float","float","float"],"gradient_booster":{"model":{"gbtree_model_param":{"num_parallel_tree":"1","num_trees":"1000","size_leaf_vector":"0"},"tree_info":[0,1,2,3,4,5,6,7,8,9,0,1,2,3,4,5,6,7,8,9,0,1,2,3,4,5,6,7,8,9,0,1,2,3,4,5,6,7,8,9,0,1,2,3,4,5,6,7,8,9,0,1,2,3,4,5,6,7,8,9,0,1,2,3,4,5,6,7,8,9,0,1,2,3,4,5,6,7,8,9,0,1,2,3,4,5,6,7,8,9,0,1,2,3,4,5,6,7,8,9,0,1,2,3,4,5,6,7,8,9,0,1,2,3,4,5,6,7,8,9,0,1,2,3,4,5,6,7,8,9,0,1,2,3,4,5,6,7,8,9,0,1,2,3,4,5,6,7,8,9,0,1,2,3,4,5,6,7,8,9,0,1,2,3,4,5,6,7,8,9,0,1,2,3,4,5,6,7,8,9,0,1,2,3,4,5,6,7,8,9,0,1,2,3,4,5,6,7,8,9,0,1,2,3,4,5,6,7,8,9,0,1,2,3,4,5,6,7,8,9,0,1,2,3,4,5,6,7,8,9,0,1,2,3,4,5,6,7,8,9,0,1,2,3,4,5,6,7,8,9,0,1,2,3,4,5,6,7,8,9,0,1,2,3,4,5,6,7,8,9,0,1,2,3,4,5,6,7,8,9,0,1,2,3,4,5,6,7,8,9,0,1,2,3,4,5,6,7,8,9,0,1,2,3,4,5,6,7,8,9,0,1,2,3,4,5,6,7,8,9,0,1,2,3,4,5,6,7,8,9,0,1,2,3,4,5,6,7,8,9,0,1,2,3,4,5,6,7,8,9,0,1,2,3,4,5,6,7,8,9,0,1,2,3,4,5,6,7,8,9,0,1,2,3,4,5,6,7,8,9,0,1,2,3,4,5,6,7,8,9,0,1,2,3,4,5,6,7,8,9,0,1,2,3,4,5,6,7,8,9,0,1,2,3,4,5,6,7,8,9,0,1,2,3,4,5,6,7,8,9,0,1,2,3,4,5,6,7,8,9,0,1,2,3,4,5,6,7,8,9,0,1,2,3,4,5,6,7,8,9,0,1,2,3,4,5,6,7,8,9,0,1,2,3,4,5,6,7,8,9,0,1,2,3,4,5,6,7,8,9,0,1,2,3,4,5,6,7,8,9,0,1,2,3,4,5,6,7,8,9,0,1,2,3,4,5,6,7,8,9,0,1,2,3,4,5,6,7,8,9,0,1,2,3,4,5,6,7,8,9,0,1,2,3,4,5,6,7,8,9,0,1,2,3,4,5,6,7,8,9,0,1,2,3,4,5,6,7,8,9,0,1,2,3,4,5,6,7,8,9,0,1,2,3,4,5,6,7,8,9,0,1,2,3,4,5,6,7,8,9,0,1,2,3,4,5,6,7,8,9,0,1,2,3,4,5,6,7,8,9,0,1,2,3,4,5,6,7,8,9,0,1,2,3,4,5,6,7,8,9,0,1,2,3,4,5,6,7,8,9,0,1,2,3,4,5,6,7,8,9,0,1,2,3,4,5,6,7,8,9,0,1,2,3,4,5,6,7,8,9,0,1,2,3,4,5,6,7,8,9,0,1,2,3,4,5,6,7,8,9,0,1,2,3,4,5,6,7,8,9,0,1,2,3,4,5,6,7,8,9,0,1,2,3,4,5,6,7,8,9,0,1,2,3,4,5,6,7,8,9,0,1,2,3,4,5,6,7,8,9,0,1,2,3,4,5,6,7,8,9,0,1,2,3,4,5,6,7,8,9,0,1,2,3,4,5,6,7,8,9,0,1,2,3,4,5,6,7,8,9,0,1,2,3,4,5,6,7,8,9,0,1,2,3,4,5,6,7,8,9,0,1,2,3,4,5,6,7,8,9,0,1,2,3,4,5,6,7,8,9,0,1,2,3,4,5,6,7,8,9,0,1,2,3,4,5,6,7,8,9,0,1,2,3,4,5,6,7,8,9,0,1,2,3,4,5,6,7,8,9,0,1,2,3,4,5,6,7,8,9,0,1,2,3,4,5,6,7,8,9,0,1,2,3,4,5,6,7,8,9,0,1,2,3,4,5,6,7,8,9,0,1,2,3,4,5,6,7,8,9,0,1,2,3,4,5,6,7,8,9,0,1,2,3,4,5,6,7,8,9,0,1,2,3,4,5,6,7,8,9,0,1,2,3,4,5,6,7,8,9,0,1,2,3,4,5,6,7,8,9,0,1,2,3,4,5,6,7,8,9,0,1,2,3,4,5,6,7,8,9,0,1,2,3,4,5,6,7,8,9],"trees":[{"base_weights":[-1.8722475E-1,-3.6849785E-1,1.7808415E-1,-4.2109826E-1,-2.4661645E-1,6.8458416E-2,4.4998583E-1,-4.5841894E-1,-3.5902843E-1,-2.759878E-1,-1.4636569E-1,-1.9382935E-3,1.6312183E-1,4.6685737E-1,1.0972361E-1,-4.681611E-1,-2.9113388E-1,-7.7772394E-2,-3.6091253E-1,-2.7910575E-1,6.9904625E-3,-1.5629724E-1,7.082483E-2,-2.550086E-2,1.9463179E-1,1.8136838E-1,-7.751311E-2,-4.7143793E-1,-2.2332478E-1,3.2849374E-1,-4.479088E-1,-3.6235255E-1,-1.034157E-1,-2.827902E-1,-7.4308105E-2,-1.6976005E-1,1.6967127E-2,5.850294E-3,-9.663609E-2,2.398747E-1,2.4187723E-2,1.9614945E-1,2.3037607E-2,-1.5212964E-1,-3.6490795E-1,-2.8423008E-1,-7.6600865E-2,-1.8042274E-1,5.37349E-2,8.296621E-2,-5.7515517E-2,-1.0176586E-2,1.3309029E-1,-1.1825682E-1,8.6921096E-2,2.9964134E-1,6.0305398E-2,2.015454E-1,-3.9521664E-2,-2.4382599E-2,7.858535E-2],"categories":[],"categories_nodes":[],"categories_segments":[],"categories_sizes":[],"default_left":[1,1,1,1,1,1,1,1,1,1,1,1,1,0,0,1,1,0,1,1,0,1,0,1,1,1,0,0,0,0,0,1,0,1,0,1,1,1,1,1,0,1,1,0,0,0,0,0,0,0,0,0,0,0,0,0,0,0,0,0,0],"id":0,"left_children":[1,3,5,7,9,11,13,15,17,19,21,23,25,-1,-1,27,29,-1,31,33,-1,35,-1,37,39,41,-1,-1,-1,-1,-1,43,-1,45,-1,47,49,51,53,55,-1,57,59,-1,-1,-1,-1,-1,-1,-1,-1,-1,-1,-1,-1,-1,-1,-1,-1,-1,-1],"loss_changes":[3.966559E1,2.460556E0,5.9008718E0,4.7940063E-1,3.2177877E-1,9.5326734E-1,2.759962E-1,1.407547E-1,2.9691696E-2,8.488798E-2,7.578099E-2,3.8939402E-1,2.8189445E-1,0E0,0E0,2.2281647E-2,1.31284E0,0E0,2.573967E-3,4.9161434E-2,0E0,7.052642E-2,0E0,1.6782822E-1,6.360045E-2,1.2887824E-1,0E0,0E0,0E0,0E0,0E0,1.9664764E-3,0E0,5.244255E-3,0E0,7.403755E-2,1.9519202E-2,1.0943519E-1,1.0155778E-1,5.70558E-2,0E0,7.409215E-2,1.7720627E-2,0E0,0E0,0E0,0E0,0E0,0E0,0E0,0E0,0E0,0E0,0E0,0E0,0E0,0E0,0E0,0E0,0E0,0E0],"parents":[2147483647,0,0,1,1,2,2,3,3,4,4,5,5,6,6,7,7,8,8,9,9,10,10,11,11,12,12,15,15,16,16,18,18,19,19,21,21,23,23,24,24,25,25,31,31,33,33,35,35,36,36,37,37,38,38,39,39,41,41,42,42],"right_children":[2,4,6,8,10,12,14,16,18,20,22,24,26,-1,-1,28,30,-1,32,34,-1,36,-1,38,40,42,-1,-1,-1,-1,-1,44,-1,46,-1,48,50,52,54,56,-1,58,60,-1,-1,-1,-1,-1,-1,-1,-1,-1,-1,-1,-1,-1,-1,-1,-1,-1,-1],"split_conditions":[3.7943542E-1,1.7421028E-1,9.2622244E-1,7.1315795E-2,2.3945704E-1,6.1516845E-1,5E-1,5E-1,7.283126E-2,5E-1,5E-1,5E-1,5E-1,4.6685737E-2,1.0972361E-2,5E-1,9.928484E-1,-7.7772397E-3,5E-1,3.4696025E-1,6.9904624E-4,5E-1,7.0824833E-3,4.1855085E-1,5E-1,5E-1,-7.7513116E-3,-4.7143795E-2,-2.2332478E-2,3.2849375E-2,-4.479088E-2,1.3913659E-3,-1.034157E-2,9.9792963E-1,-7.4308105E-3,5E-1,5E-1,3.235156E-1,9.9823904E-1,7.490257E-1,2.4187723E-3,5E-1,5E-1,-1.5212963E-2,-3.6490794E-2,-2.842301E-2,-7.6600867E-3,-1.8042274E-2,5.37349E-3,8.296621E-3,-5.7515516E-3,-1.0176586E-3,1.3309029E-2,-1.1825683E-2,8.69211E-3,2.9964134E-2,6.03054E-3,2.0154541E-2,-3.9521665E-3,-2.43826E-3,7.858535E-3],"split_indices":[48,48,48,48,49,48,17,16,48,17,30,37,38,0,0,20,46,0,19,48,0,5,0,46,18,35,0,0,0,0,0,46,0,46,0,27,23,47,46,46,0,36,16,0,0,0,0,0,0,0,0,0,0,0,0,0,0,0,0,0,0],"split_type":[0,0,0,0,0,0,0,0,0,0,0,0,0,0,0,0,0,0,0,0,0,0,0,0,0,0,0,0,0,0,0,0,0,0,0,0,0,0,0,0,0,0,0,0,0,0,0,0,0,0,0,0,0,0,0,0,0,0,0,0,0],"sum_hessian":[5.97E2,3.99E2,1.98E2,2.77E2,1.22E2,1.42E2,5.6E1,1.69E2,1.08E2,9.3E1,2.9E1,8.2E1,6E1,5.3E1,3E0,1.58E2,1.1E1,1E0,1.07E2,9.2E1,1E0,2.8E1,1E0,7.4E1,8E0,5.6E1,4E0,1.55E2,3E0,2E0,9E0,1.06E2,1E0,9E1,2E0,2.6E1,2E0,5.2E1,2.2E1,6E0,2E0,5.1E1,5E0,2E0,1.04E2,8.9E1,1E0,2.5E1,1E0,1E0,1E0,4.7E1,5E0,2E1,2E0,4E0,2E0,5E1,1E0,3E0,2E0],"tree_param":{"num_deleted":"0","num_feature":"61","num_nodes":"61","size_leaf_vector":"0"}},{"base_weights":[-1.8718918E-1,-3.6473057E-1,1.6794181E-1,-4.250514E-1,-2.70032E-1,6.560545E-2,4.6563813E-1,-4.3477026E-1,-2.3571768E-1,-2.9897994E-1,-1.3655472E-1,-1.668938E-2,1.3223729E-1,-4.6618658E-1,-3.5979044E-1,-3.571274E-1,3.2849374E-1,-3.0126652E-1,-3.1496435E-3,-1.5011485E-1,1.283446E-1,-4.8220355E-2,1.9537148E-1,1.734056E-1,2.9790595E-2,-3.6547118E-1,-1.7185026E-1,-4.3405908E-1,2.4456057E-1,-3.03219E-1,-2.6651189E-2,-1.6698451E-1,5.1750362E-2,2.9521188E-2,-9.400549E-2,5.0361454E-4,2.9272148E-1,1.8177457E-1,-4.3406915E-2,1.5855931E-1,-4.013346E-2,-6.3804604E-2,-1.9342616E-1,-5.3406656E-3,8.296621E-2,-2.248265E-2,1.5159892E-1,-1.0956202E-1,1.2400798E-1,1.928404E-2,-1.2184541E-2,1.9069093E-1,-4.2283546E-2,-9.512246E-3,-5.5598125E-2,7.75597E-2,2.4041888E-1,-8.0119394E-2,1.0985066E-1],"categories":[],"categories_nodes":[],"categories_segments":[],"categories_sizes":[],"default_left":[1,1,1,1,1,1,0,1,1,1,1,1,1,0,1,1,0,1,0,1,0,1,1,1,1,0,0,0,0,0,0,1,1,1,1,1,0,1,1,1,1,0,0,0,0,0,0,0,0,0,0,0,0,0,0,0,0,0,0],"id":1,"left_children":[1,3,5,7,9,11,-1,13,15,17,19,21,23,-1,25,27,-1,29,-1,31,-1,33,35,37,39,-1,-1,-1,-1,-1,-1,41,43,45,47,49,-1,51,53,55,57,-1,-1,-1,-1,-1,-1,-1,-1,-1,-1,-1,-1,-1,-1,-1,-1,-1,-1],"loss_changes":[3.776542E1,2.164425E0,6.062483E0,3.4282303E-1,5.6966877E-1,8.2472533E-1,0E0,3.7169647E-1,1.0763245E0,8.631134E-2,1.2702858E-1,4.6410188E-1,3.4489155E-1,0E0,1.4063835E-2,6.6162026E-1,0E0,6.055069E-2,0E0,1.0739797E-1,0E0,2.1633956E-1,1.7058602E-1,1.1494553E-1,2.314643E-1,0E0,0E0,0E0,0E0,0E0,0E0,6.132126E-2,5.7895286E-3,1.4942408E-1,1.4246479E-1,1.1881229E-3,0E0,1.219368E-1,7.1078865E-4,4.10285E-2,1.10754505E-1,0E0,0E0,0E0,0E0,0E0,0E0,0E0,0E0,0E0,0E0,0E0,0E0,0E0,0E0,0E0,0E0,0E0,0E0],"parents":[2147483647,0,0,1,1,2,2,3,3,4,4,5,5,7,7,8,8,9,9,10,10,11,11,12,12,14,14,15,15,17,17,19,19,21,21,22,22,23,23,24,24,31,31,32,32,33,33,34,34,35,35,37,37,38,38,39,39,40,40],"right_children":[2,4,6,8,10,12,-1,14,16,18,20,22,24,-1,26,28,-1,30,-1,32,-1,34,36,38,40,-1,-1,-1,-1,-1,-1,42,44,46,48,50,-1,52,54,56,58,-1,-1,-1,-1,-1,-1,-1,-1,-1,-1,-1,-1,-1,-1,-1,-1,-1,-1],"split_conditions":[3.780401E-1,1.3898712E-1,9.637401E-1,5E-1,2.3945704E-1,5.2440846E-1,4.6563815E-2,7.0092835E-2,5E-1,3.4696025E-1,5E-1,5E-1,4.3187895E-1,-4.661866E-2,5E-1,5E-1,3.2849375E-2,5E-1,-3.1496436E-4,5E-1,1.283446E-2,1.1450423E-1,2.5626436E-1,5E-1,4.2693543E-1,-3.654712E-2,-1.7185027E-2,-4.340591E-2,2.4456058E-2,-3.03219E-2,-2.665119E-3,5.7951722E-2,5E-1,5E-1,9.891561E-1,4.4302106E-1,2.9272148E-2,5E-1,5E-1,9.228927E-1,7.8496337E-1,-6.3804607E-3,-1.9342616E-2,-5.340666E-4,8.296621E-3,-2.248265E-3,1.5159892E-2,-1.0956202E-2,1.2400798E-2,1.928404E-3,-1.2184541E-3,1.9069094E-2,-4.228355E-3,-9.512246E-4,-5.5598128E-3,7.75597E-3,2.404189E-2,-8.01194E-3,1.0985066E-2],"split_indices":[48,48,48,16,49,48,0,48,26,48,30,37,46,0,32,27,0,17,0,5,0,47,47,4,49,0,0,0,0,0,0,46,23,60,46,48,0,30,37,46,49,0,0,0,0,0,0,0,0,0,0,0,0,0,0,0,0,0,0],"split_type":[0,0,0,0,0,0,0,0,0,0,0,0,0,0,0,0,0,0,0,0,0,0,0,0,0,0,0,0,0,0,0,0,0,0,0,0,0,0,0,0,0,0,0,0,0,0,0,0,0,0,0,0,0,0,0,0,0,0,0],"sum_hessian":[5.97E2,3.98E2,1.99E2,2.41E2,1.57E2,1.49E2,5E1,2.28E2,1.3E1,1.28E2,2.9E1,6.7E1,8.2E1,1.57E2,7.1E1,1.1E1,2E0,1.27E2,1E0,2.8E1,1E0,5.9E1,8E0,5.8E1,2.4E1,6.8E1,3E0,1E1,1E0,1.26E2,1E0,2.6E1,2E0,2.2E1,3.7E1,3E0,5E0,5.6E1,2E0,8E0,1.6E1,6E0,2E1,1E0,1E0,1.6E1,6E0,3.5E1,2E0,1E0,2E0,5.4E1,2E0,1E0,1E0,5E0,3E0,1.3E1,3E0],"tree_param":{"num_deleted":"0","num_feature":"61","num_nodes":"59","size_leaf_vector":"0"}},{"base_weights":[-1.871562E-1,-3.6638844E-1,1.4819178E-1,-4.309605E-1,-2.947155E-1,4.8698206E-2,4.554719E-1,-4.4776025E-1,-1.262512E-1,-3.0728945E-1,-4.017017E-2,-2.9338673E-2,1.2809427E-1,-4.6436766E-1,-3.5999644E-1,3.9351848E-1,-4.3532586E-1,-3.1114912E-1,2.2861162E-2,-7.023066E-2,1.1518714E-1,-4.2179033E-2,3.1857032E-1,1.8593484E-1,3.0371456E-3,-3.7480202E-1,-1.5155269E-1,-3.2241207E-1,-2.522315E-1,3.963241E-2,-5.3406656E-3,-8.075711E-2,6.9904625E-3,-5.5022717E-2,2.1239577E-1,1.6159551E-1,3.2627106E-1,1.2093209E-1,-5.6079056E-2,-3.855574E-1,-1.4231396E-1,-1.8206608E-1,-3.2612398E-1,-8.914173E-2,-2.7817106E-1,-8.7195456E-2,-1.7844364E-2,3.4897424E-2,-9.9785484E-2,2.2864096E-1,1.1745313E-1,1.0774398E-1,3.9213312E-1,1.9779931E-1,-2.4601758E-2,1.0705136E-1,-9.58419E-2],"categories":[],"categories_nodes":[],"categories_segments":[],"categories_sizes":[],"default_left":[1,1,1,1,1,1,0,1,1,1,1,1,1,0,1,0,0,1,1,1,0,1,0,1,1,1,0,1,1,0,0,1,0,1,0,1,1,1,1,0,0,0,0,0,0,0,0,0,0,0,0,0,0,0,0,0,0],"id":2,"left_children":[1,3,5,7,9,11,-1,13,15,17,19,21,23,-1,25,-1,-1,27,29,31,-1,33,-1,35,37,39,-1,41,43,-1,-1,45,-1,47,-1,49,51,53,55,-1,-1,-1,-1,-1,-1,-1,-1,-1,-1,-1,-1,-1,-1,-1,-1,-1,-1],"loss_changes":[3.599719E1,1.6779404E0,6.367451E0,9.826355E-1,5.8937645E-1,9.8889357E-1,0E0,1.1267471E-1,2.0990803E0,2.3520851E-1,5.4790843E-2,3.7528637E-1,5.7087207E-1,0E0,5.1211834E-2,0E0,0E0,3.6130905E-2,1.6306029E-3,7.880308E-3,0E0,2.6999128E-1,0E0,1.317234E-1,1.879888E-1,2.5146008E-2,0E0,1.6161919E-2,1.14809036E-1,0E0,0E0,1.6844831E-3,0E0,3.0938786E-1,0E0,1.1520362E-1,5.84985E-2,1.0554725E-1,1.2701753E-1,0E0,0E0,0E0,0E0,0E0,0E0,0E0,0E0,0E0,0E0,0E0,0E0,0E0,0E0,0E0,0E0,0E0,0E0],"parents":[2147483647,0,0,1,1,2,2,3,3,4,4,5,5,7,7,8,8,9,9,10,10,11,11,12,12,14,14,17,17,18,18,19,19,21,21,23,23,24,24,25,25,27,27,28,28,31,31,33,33,35,35,36,36,37,37,38,38],"right_children":[2,4,6,8,10,12,-1,14,16,18,20,22,24,-1,26,-1,-1,28,30,32,-1,34,-1,36,38,40,-1,42,44,-1,-1,46,-1,48,-1,50,52,54,56,-1,-1,-1,-1,-1,-1,-1,-1,-1,-1,-1,-1,-1,-1,-1,-1,-1,-1],"split_conditions":[3.4696025E-1,1.03489995E-1,9.637401E-1,5E-1,5E-1,5.3860915E-1,4.554719E-2,7.0092835E-2,9.930986E-1,5E-1,5E-1,5E-1,3.877076E-1,-4.6436768E-2,5E-1,3.9351847E-2,-4.3532588E-2,2.7284014E-1,5E-1,5E-1,1.1518714E-2,9.901632E-1,3.1857032E-2,5E-1,4.1895562E-1,5E-1,-1.515527E-2,1.1255661E-2,5.119615E-2,3.963241E-3,-5.340666E-4,5E-1,6.9904624E-4,1.4312449E-1,2.1239577E-2,4.593594E-3,2.018278E-1,8.025316E-1,6.1947644E-1,-3.855574E-2,-1.4231396E-2,-1.820661E-2,-3.26124E-2,-8.914173E-3,-2.7817106E-2,-8.719546E-3,-1.7844364E-3,3.4897425E-3,-9.978549E-3,2.2864096E-2,1.1745313E-2,1.0774398E-2,3.921331E-2,1.9779932E-2,-2.460176E-3,1.0705136E-2,-9.58419E-3],"split_indices":[48,48,48,16,17,48,0,48,47,5,30,10,46,0,32,0,0,48,23,36,0,46,0,5,49,33,0,49,47,0,0,43,0,46,0,46,46,48,48,0,0,0,0,0,0,0,0,0,0,0,0,0,0,0,0,0,0],"split_type":[0,0,0,0,0,0,0,0,0,0,0,0,0,0,0,0,0,0,0,0,0,0,0,0,0,0,0,0,0,0,0,0,0,0,0,0,0,0,0,0,0,0,0,0,0,0,0,0,0,0,0,0,0,0,0,0,0],"sum_hessian":[5.97E2,3.89E2,2.08E2,2.02E2,1.87E2,1.58E2,5E1,1.91E2,1.1E1,1.78E2,9E0,8E1,7.8E1,1.57E2,3.4E1,4E0,7E0,1.76E2,2E0,8E0,1E0,7.8E1,2E0,5.3E1,2.5E1,3.1E1,3E0,1.44E2,3.2E1,1E0,1E0,7E0,1E0,7.5E1,3E0,4.7E1,6E0,8E0,1.7E1,2.9E1,2E0,5E0,1.39E2,5E0,2.7E1,6E0,1E0,2.5E1,5E1,1.7E1,3E1,2E0,4E0,5E0,3E0,3E0,1.4E1],"tree_param":{"num_deleted":"0","num_feature":"61","num_nodes":"57","size_leaf_vector":"0"}},{"base_weights":[-1.8712646E-1,-3.603123E-1,1.3693865E-1,-4.2268515E-1,-2.9104635E-1,3.681634E-2,4.463996E-1,-4.441602E-1,-4.386044E-2,-3.1236017E-1,-1.1602579E-1,8.61577E-2,-7.247098E-2,4.5651227E-1,1.3242619E-1,-4.5983955E-1,-3.6068887E-1,2.8087285E-1,-4.1540587E-1,-1.6478974E-1,-3.1778643E-1,-1.4303865E-1,2.2562212E-1,1.3590193E-1,-1.0791403E-1,-9.914264E-2,1.874025E-1,-3.779981E-1,-1.3204275E-1,4.0960717E-1,-2.4576655E-1,-2.0656487E-1,-7.137339E-2,-3.2025668E-1,-8.1757724E-2,-1.6658571E-1,5.377227E-2,6.1678812E-2,1.7931436E-1,-4.0516965E-2,-2.2921892E-1,-1.8294503E-1,-3.3394843E-2,-3.874442E-1,-1.5753774E-1,-3.394279E-2,-1.5342848E-1,-3.3399013E-1,-2.663178E-1,-2.4923807E-1,1.2660149E-1,-2.1863832E-1,-6.768358E-2,8.592708E-2,-2.1752895E-1,1.4725578E-1,3.7810814E-1,4.4590045E-2,-7.26018E-2,-2.3573771E-2,-2.0968269E-1,-6.1513893E-2,1.4366816E-1],"categories":[],"categories_nodes":[],"categories_segments":[],"categories_sizes":[],"default_left":[1,1,1,1,1,1,1,1,1,1,1,1,1,0,0,0,1,1,0,1,1,1,0,1,1,1,0,1,1,0,0,0,0,1,1,1,0,1,1,1,0,1,1,0,0,0,0,0,0,0,0,0,0,0,0,0,0,0,0,0,0,0,0],"id":3,"left_children":[1,3,5,7,9,11,13,15,17,19,21,23,25,-1,-1,-1,27,29,-1,31,33,35,-1,37,39,41,-1,43,45,-1,-1,-1,-1,47,49,51,-1,53,55,57,-1,59,61,-1,-1,-1,-1,-1,-1,-1,-1,-1,-1,-1,-1,-1,-1,-1,-1,-1,-1,-1,-1],"loss_changes":[3.3611183E1,1.5619011E0,6.4592094E0,1.6319847E0,6.650648E-1,8.6363316E-1,1.01475716E-1,8.542633E-2,1.5645142E0,8.135986E-2,2.3530817E-1,1.0766E0,3.651424E-1,0E0,0E0,0E0,8.860731E-2,5.752438E-1,0E0,1.6476601E-2,6.710434E-2,1.0627836E-1,0E0,2.7249432E-1,1.7875141E-1,2.4734241E-1,0E0,5.60236E-3,3.183961E-3,0E0,0E0,0E0,0E0,2.8093338E-2,1.3624212E-1,8.301598E-2,0E0,2.4888197E-1,2.948389E-1,4.692764E-2,0E0,8.028126E-2,1.4326636E-1,0E0,0E0,0E0,0E0,0E0,0E0,0E0,0E0,0E0,0E0,0E0,0E0,0E0,0E0,0E0,0E0,0E0,0E0,0E0,0E0],"parents":[2147483647,0,0,1,1,2,2,3,3,4,4,5,5,6,6,7,7,8,8,9,9,10,10,11,11,12,12,16,16,17,17,19,19,20,20,21,21,23,23,24,24,25,25,27,27,28,28,33,33,34,34,35,35,37,37,38,38,39,39,41,41,42,42],"right_children":[2,4,6,8,10,12,14,16,18,20,22,24,26,-1,-1,-1,28,30,-1,32,34,36,-1,38,40,42,-1,44,46,-1,-1,-1,-1,48,50,52,-1,54,56,58,-1,60,62,-1,-1,-1,-1,-1,-1,-1,-1,-1,-1,-1,-1,-1,-1,-1,-1,-1,-1,-1,-1],"split_conditions":[3.4696025E-1,1.03489995E-1,9.637401E-1,5E-1,2.3945704E-1,4.1638264E-1,5E-1,7.0092835E-2,1.0700435E-3,2.2703618E-2,5E-1,5E-1,9.867213E-1,4.5651227E-2,1.3242619E-2,-4.5983955E-2,5E-1,5E-1,-4.154059E-2,6.888989E-1,3.422388E-1,5E-1,2.2562211E-2,5.268784E-1,7.41825E-2,3.885412E-1,1.874025E-2,5E-1,1.01953775E-1,4.0960718E-2,-2.4576655E-2,-2.0656487E-2,-7.137339E-3,5E-1,5E-1,5E-1,5.377227E-3,5E-1,5E-1,3.8476235E-1,-2.2921892E-2,3.006058E-1,5E-1,-3.874442E-2,-1.5753774E-2,-3.394279E-3,-1.5342848E-2,-3.3399012E-2,-2.6631782E-2,-2.4923807E-2,1.2660149E-2,-2.1863831E-2,-6.768358E-3,8.592708E-3,-2.1752896E-2,1.4725578E-2,3.7810814E-2,4.4590044E-3,-7.2601805E-3,-2.3573772E-3,-2.096827E-2,-6.1513893E-3,1.4366816E-2],"split_indices":[48,48,48,16,49,46,32,48,49,49,30,51,47,0,0,0,32,24,0,46,48,5,0,48,47,49,0,33,46,0,0,0,0,21,4,17,0,32,5,48,0,47,36,0,0,0,0,0,0,0,0,0,0,0,0,0,0,0,0,0,0,0,0],"split_type":[0,0,0,0,0,0,0,0,0,0,0,0,0,0,0,0,0,0,0,0,0,0,0,0,0,0,0,0,0,0,0,0,0,0,0,0,0,0,0,0,0,0,0,0,0,0,0,0,0,0,0,0,0,0,0,0,0,0,0,0,0,0,0],"sum_hessian":[5.97E2,3.89E2,2.08E2,2.02E2,1.87E2,1.58E2,5E1,1.91E2,1.1E1,1.66E2,2.1E1,1.09E2,4.9E1,4.8E1,2E0,1.57E2,3.4E1,6E0,5E0,7E0,1.59E2,2E1,1E0,8.7E1,2.2E1,4.5E1,4E0,3.1E1,3E0,5E0,1E0,4E0,3E0,1.57E2,2E0,1.8E1,2E0,3.3E1,5.4E1,1.5E1,7E0,1.9E1,2.6E1,2.9E1,2E0,1E0,2E0,1.21E2,3.6E1,1E0,1E0,1.1E1,7E0,3.1E1,2E0,4.8E1,6E0,4E0,1.1E1,3E0,1.6E1,2.3E1,3E0],"tree_param":{"num_deleted":"0","num_feature":"61","num_nodes":"63","size_leaf_vector":"0"}},{"base_weights":[-1.8709098E-1,-3.55554E-1,1.2816101E-1,-4.1530222E-1,-2.8914738E-1,2.8971387E-2,4.3488628E-1,-4.4152677E-1,3.889923E-2,-3.1107622E-1,-1.1830667E-1,7.0596915E-3,2.9680136E-1,4.478254E-1,7.858535E-2,-4.5637158E-1,-3.6189812E-1,4.2165753E-1,-4.1413534E-1,-1.678389E-1,-3.2114774E-1,-1.3805816E-1,1.58113E-1,1.4837518E-1,-4.8475917E-2,4.222639E-1,1.0096151E-1,9.681597E-2,2.1062046E-2,-3.9259923E-1,-1.8300815E-1,-2.0292573E-1,1.2660149E-1,-3.3728918E-1,-2.517415E-1,-1.6306773E-1,7.4691735E-2,1.7024268E-1,-1.1203647E-2,-8.8988155E-2,1.4384328E-1,1.3429639E-1,2.2861162E-2,-3.1993258E-1,-6.425188E-2,-2.5227758E-1,-8.337763E-2,-4.284346E-2,-3.3936855E-1,-6.031074E-2,-2.0279852E-1,1.8722941E-1,-1.6705215E-2,3.757441E-3,-4.3004543E-2,-1.057468E-1,1.6046423E-1,2.0680936E-1,6.3572526E-3,3.963241E-2,-5.3406656E-3],"categories":[],"categories_nodes":[],"categories_segments":[],"categories_sizes":[],"default_left":[1,1,1,1,1,1,1,1,1,1,1,1,1,0,1,0,1,0,0,1,1,1,0,1,1,0,1,0,0,0,1,1,0,1,0,1,0,1,1,1,1,0,1,0,0,0,0,0,0,0,0,0,0,0,0,0,0,0,0,0,0],"id":4,"left_children":[1,3,5,7,9,11,13,15,17,19,21,23,25,-1,27,-1,29,-1,-1,31,33,35,-1,37,39,-1,41,-1,-1,-1,43,45,-1,47,-1,49,-1,51,53,55,57,-1,59,-1,-1,-1,-1,-1,-1,-1,-1,-1,-1,-1,-1,-1,-1,-1,-1,-1,-1],"loss_changes":[3.1804329E1,1.4273148E0,6.346009E0,2.4351578E0,6.675091E-1,9.3101346E-1,1.9992924E-1,6.179428E-2,2.2554564E0,1.8557358E-1,1.4740187E-1,1.1687027E0,2.5221443E-1,0E0,1.1069141E-3,0E0,1.2037516E-1,0E0,0E0,1.5999341E-1,8.761883E-2,1.2923703E-1,0E0,1.4847022E-1,8.464674E-1,0E0,1.2550626E-2,0E0,0E0,0E0,9.3268156E-2,4.9764752E-2,0E0,6.0154915E-2,0E0,6.942141E-2,0E0,1.2062609E-1,3.016243E-3,3.8903165E-1,1.6316742E-1,0E0,1.6306029E-3,0E0,0E0,0E0,0E0,0E0,0E0,0E0,0E0,0E0,0E0,0E0,0E0,0E0,0E0,0E0,0E0,0E0,0E0],"parents":[2147483647,0,0,1,1,2,2,3,3,4,4,5,5,6,6,7,7,8,8,9,9,10,10,11,11,12,12,14,14,16,16,19,19,20,20,21,21,23,23,24,24,26,26,30,30,31,31,33,33,35,35,37,37,38,38,39,39,40,40,42,42],"right_children":[2,4,6,8,10,12,14,16,18,20,22,24,26,-1,28,-1,30,-1,-1,32,34,36,-1,38,40,-1,42,-1,-1,-1,44,46,-1,48,-1,50,-1,52,54,56,58,-1,60,-1,-1,-1,-1,-1,-1,-1,-1,-1,-1,-1,-1,-1,-1,-1,-1,-1,-1],"split_conditions":[3.4696025E-1,1.03489995E-1,9.637401E-1,5E-1,2.2774914E-1,5E-1,5E-1,7.0092835E-2,1.0700435E-3,3.219137E-2,5E-1,1.059831E-1,1.1110619E-1,4.478254E-2,7.8814507E-1,-4.5637157E-2,5E-1,4.2165753E-2,-4.1413534E-2,5E-1,5E-1,5E-1,1.58113E-2,5E-1,5.6276846E-1,4.222639E-2,1.2516391E-1,9.681597E-3,2.1062046E-3,-3.925992E-2,4.7315247E-2,5.752726E-1,1.2660149E-2,1.05414845E-1,-2.517415E-2,9.225857E-2,7.4691735E-3,5E-1,3.9660746E-1,9.964118E-1,5.328828E-1,1.3429639E-2,5E-1,-3.199326E-2,-6.425188E-3,-2.5227759E-2,-8.337763E-3,-4.284346E-3,-3.3936854E-2,-6.031074E-3,-2.0279853E-2,1.8722942E-2,-1.6705216E-3,3.757441E-4,-4.300454E-3,-1.057468E-2,1.6046423E-2,2.0680936E-2,6.357253E-4,3.963241E-3,-5.340666E-4],"split_indices":[48,48,48,16,49,5,32,48,49,49,30,46,47,0,46,0,4,0,0,33,21,5,0,0,49,0,47,0,0,0,47,46,0,48,0,46,0,26,48,46,46,0,22,0,0,0,0,0,0,0,0,0,0,0,0,0,0,0,0,0,0],"split_type":[0,0,0,0,0,0,0,0,0,0,0,0,0,0,0,0,0,0,0,0,0,0,0,0,0,0,0,0,0,0,0,0,0,0,0,0,0,0,0,0,0,0,0,0,0,0,0,0,0,0,0,0,0,0,0,0,0,0,0,0,0],"sum_hessian":[5.97E2,3.89E2,2.08E2,2.02E2,1.87E2,1.58E2,5E1,1.91E2,1.1E1,1.65E2,2.2E1,1.47E2,1.1E1,4.8E1,2E0,1.57E2,3.4E1,6E0,5E0,1.2E1,1.53E2,2.1E1,1E0,4.1E1,1.06E2,6E0,5E0,1E0,1E0,2.8E1,6E0,1.1E1,1E0,1.21E2,3.2E1,1.9E1,2E0,3.6E1,5E0,8.8E1,1.8E1,3E0,2E0,2E0,4E0,7E0,4E0,1E0,1.2E2,6E0,1.3E1,3.3E1,3E0,4E0,1E0,8.3E1,5E0,1.2E1,6E0,1E0,1E0],"tree_param":{"num_deleted":"0","num_feature":"61","num_nodes":"61","size_leaf_vector":"0"}},{"base_weights":[-1.870517E-1,-3.518502E-1,1.21362045E-1,-3.647687E-1,5.084585E-2,2.3641715E-2,4.236399E-1,-4.4767803E-1,-3.0318984E-1,4.0969592E-1,-2.2464743E-1,-1.8914607E-4,3.1558552E-1,4.4168478E-1,-1.2306412E-2,-4.5363897E-1,2.4707583E-1,-3.2054865E-1,-1.2343047E-1,-3.2722953E-1,2.4671367E-1,1.3919239E-1,-4.9604516E-2,4.3189776E-1,6.636884E-2,4.5202714E-1,1.3242619E-1,2.1062046E-2,-3.9521664E-2,-4.575093E-1,-2.4370494E-1,-2.0724855E-1,-3.348211E-1,-1.5390038E-1,1.106892E-1,9.710264E-2,-4.1413534E-1,1.5917484E-1,-2.852323E-2,-8.219773E-2,1.2154956E-1,8.5631385E-2,-5.3406656E-3,-2.7959618E-1,1.8730551E-2,-3.526748E-1,-2.5281978E-1,-2.6055137E-2,-2.1090165E-1,1.76654E-1,1.8969119E-2,7.1250655E-2,-1.18789375E-1,8.922813E-2,-1.0162703E-1,6.633785E-2,2.5183243E-1],"categories":[],"categories_nodes":[],"categories_segments":[],"categories_sizes":[],"default_left":[1,1,1,1,1,1,1,1,1,0,1,1,1,1,1,1,0,1,1,1,0,1,1,0,1,0,0,0,0,0,0,1,1,1,0,0,0,1,1,1,1,0,0,0,0,0,0,0,0,0,0,0,0,0,0,0,0],"id":5,"left_children":[1,3,5,7,9,11,13,15,17,-1,19,21,23,25,27,29,-1,31,33,35,-1,37,39,-1,41,-1,-1,-1,-1,-1,-1,43,45,47,-1,-1,-1,49,51,53,55,-1,-1,-1,-1,-1,-1,-1,-1,-1,-1,-1,-1,-1,-1,-1,-1],"loss_changes":[3.0436724E1,2.0474205E0,6.1635714E0,1.7941322E0,1.3772273E0,1.1062659E0,4.0663147E-1,7.7056503E-1,6.4692307E-1,0E0,4.6755776E-1,1.026268E0,3.1917882E-1,9.68647E-2,3.5568E-3,1.687622E-2,0E0,2.540245E-1,1.6684085E-1,2.9835218E-1,0E0,1.352436E-1,6.236219E-1,0E0,7.363867E-3,0E0,0E0,0E0,0E0,0E0,0E0,4.1396344E-1,1.6850662E-1,1.3296446E-1,0E0,0E0,0E0,8.242279E-2,5.349485E-2,3.188216E-1,1.127705E-1,0E0,0E0,0E0,0E0,0E0,0E0,0E0,0E0,0E0,0E0,0E0,0E0,0E0,0E0,0E0,0E0],"parents":[2147483647,0,0,1,1,2,2,3,3,4,4,5,5,6,6,7,7,8,8,10,10,11,11,12,12,13,13,14,14,15,15,17,17,18,18,19,19,21,21,22,22,24,24,31,31,32,32,33,33,37,37,38,38,39,39,40,40],"right_children":[2,4,6,8,10,12,14,16,18,-1,20,22,24,26,28,30,-1,32,34,36,-1,38,40,-1,42,-1,-1,-1,-1,-1,-1,44,46,48,-1,-1,-1,50,52,54,56,-1,-1,-1,-1,-1,-1,-1,-1,-1,-1,-1,-1,-1,-1,-1,-1],"split_conditions":[3.4696025E-1,9.8479664E-1,9.637401E-1,7.0092835E-2,1.0700435E-3,5E-1,5E-1,5E-1,2.3945704E-1,4.096959E-2,5E-1,8.8323355E-3,1.1601886E-1,5E-1,7.8814507E-1,5.0359106E-1,2.4707584E-2,3.219137E-2,5E-1,5E-1,2.4671366E-2,5E-1,5.4330975E-1,4.3189775E-2,1.5950964E-1,4.5202713E-2,1.3242619E-2,2.1062046E-3,-3.9521665E-3,-4.575093E-2,-2.4370495E-2,5E-1,5E-1,9.225857E-2,1.1068921E-2,9.710264E-3,-4.1413534E-2,5E-1,5E-1,1.059831E-1,8.162328E-1,8.563139E-3,-5.340666E-4,-2.7959619E-2,1.8730551E-3,-3.5267483E-2,-2.5281979E-2,-2.6055137E-3,-2.1090165E-2,1.76654E-2,1.8969119E-3,7.1250657E-3,-1.18789375E-2,8.922813E-3,-1.0162703E-2,6.6337856E-3,2.5183244E-2],"split_indices":[48,47,48,48,49,5,32,16,49,0,24,47,47,31,46,47,0,49,5,16,0,26,49,0,46,0,0,0,0,0,0,4,21,46,0,0,0,25,17,46,47,0,0,0,0,0,0,0,0,0,0,0,0,0,0,0,0],"split_type":[0,0,0,0,0,0,0,0,0,0,0,0,0,0,0,0,0,0,0,0,0,0,0,0,0,0,0,0,0,0,0,0,0,0,0,0,0,0,0,0,0,0,0,0,0,0,0,0,0,0,0,0,0,0,0,0,0],"sum_hessian":[5.97E2,3.89E2,2.08E2,3.77E2,1.2E1,1.58E2,5E1,1.58E2,2.19E2,5E0,7E0,1.47E2,1.1E1,4.8E1,2E0,1.57E2,1E0,1.99E2,2E1,6E0,1E0,3.8E1,1.09E2,7E0,4E0,4.6E1,2E0,1E0,1E0,1.53E2,4E0,2.4E1,1.75E2,1.8E1,2E0,1E0,5E0,3.4E1,4E0,9.2E1,1.7E1,3E0,1E0,1.8E1,6E0,1.41E2,3.4E1,6E0,1.2E1,3E1,4E0,2E0,2E0,9E0,8.3E1,1.3E1,4E0],"tree_param":{"num_deleted":"0","num_feature":"61","num_nodes":"57","size_leaf_vector":"0"}},{"base_weights":[-1.8699864E-1,-3.468708E-1,1.1222215E-1,-3.622621E-1,1.273434E-1,1.6502224E-2,4.0844265E-1,-4.4212496E-1,-3.028964E-1,3.1504282E-1,-3.7374103E-1,-1.104134E-2,3.54831E-1,4.288856E-1,-6.1606627E-2,-4.4804555E-1,2.4666396E-1,-3.212633E-1,-1.1354968E-1,4.3071932E-1,-9.8442055E-2,-6.612876E-2,1.3433628E-1,4.0966552E-1,5.377227E-2,4.4212E-1,7.858535E-2,-4.5504218E-1,-2.5997835E-1,-1.3154681E-1,-3.3267316E-1,-2.0287706E-2,-2.141091E-1,9.810346E-2,-2.4576655E-1,8.9771576E-2,-1.1416827E-1,1.6220501E-1,-2.419828E-2,4.3940356E-1,7.10116E-2,4.555086E-1,2.3855393E-1,2.1062046E-2,9.681597E-2,-6.573314E-2,-3.290147E-1,-3.347838E-2,-3.3571032E-1,4.26379E-2,-2.2327715E-1,-2.3537685E-1,-1.1349633E-2,1.2588339E-1,-5.158167E-2,-1.3566034E-1,5.628984E-2,1.7825991E-1,-6.84672E-2,-6.436198E-2,1.0839197E-1],"categories":[],"categories_nodes":[],"categories_segments":[],"categories_sizes":[],"default_left":[1,1,1,1,1,1,1,1,1,1,0,1,1,1,0,1,0,1,1,0,1,1,1,1,0,1,1,0,0,1,1,1,1,0,0,1,1,1,1,0,0,0,0,0,0,0,0,0,0,0,0,0,0,0,0,0,0,0,0,0,0],"id":6,"left_children":[1,3,5,7,9,11,13,15,17,19,-1,21,23,25,-1,27,-1,29,31,-1,33,35,37,39,-1,41,43,-1,-1,45,47,49,51,-1,-1,53,55,57,59,-1,-1,-1,-1,-1,-1,-1,-1,-1,-1,-1,-1,-1,-1,-1,-1,-1,-1,-1,-1,-1,-1],"loss_changes":[2.8645496E1,2.8926544E0,5.919289E0,1.6582222E0,1.3404368E0,1.4856038E0,5.1649094E-1,7.589264E-1,7.286148E-1,5.207057E-1,0E0,1.1941382E0,1.7607224E-1,1.9242E-1,0E0,8.959961E-2,0E0,3.8916588E-1,1.9260195E-1,0E0,1.1097846E-1,8.1910187E-1,1.8506956E-1,6.950641E-2,0E0,1.9433975E-2,1.1069141E-3,0E0,0E0,1.4732194E-1,1.5959549E-1,1.6279887E-1,4.045099E-2,0E0,0E0,1.392108E-1,3.1170654E-1,1.4182466E-1,4.425353E-2,0E0,0E0,0E0,0E0,0E0,0E0,0E0,0E0,0E0,0E0,0E0,0E0,0E0,0E0,0E0,0E0,0E0,0E0,0E0,0E0,0E0,0E0],"parents":[2147483647,0,0,1,1,2,2,3,3,4,4,5,5,6,6,7,7,8,8,9,9,11,11,12,12,13,13,15,15,17,17,18,18,20,20,21,21,22,22,23,23,25,25,26,26,29,29,30,30,31,31,32,32,35,35,36,36,37,37,38,38],"right_children":[2,4,6,8,10,12,14,16,18,20,-1,22,24,26,-1,28,-1,30,32,-1,34,36,38,40,-1,42,44,-1,-1,46,48,50,52,-1,-1,54,56,58,60,-1,-1,-1,-1,-1,-1,-1,-1,-1,-1,-1,-1,-1,-1,-1,-1,-1,-1,-1,-1,-1,-1],"split_conditions":[3.4696025E-1,9.8479664E-1,9.637401E-1,7.0092835E-2,9.935242E-1,5E-1,5E-1,5E-1,2.3945704E-1,1.881128E-3,-3.7374105E-2,4.6611252E-1,5E-1,5E-1,-6.160663E-3,4.2513645E-1,2.4666397E-2,1.0205334E-2,1.5683487E-1,4.3071933E-2,5E-1,1.059831E-1,5E-1,5E-1,5.377227E-3,5E-1,7.6575136E-1,-4.550422E-2,-2.5997836E-2,5E-1,7.283126E-2,5E-1,5E-1,9.810346E-3,-2.4576655E-2,5E-1,5E-1,5E-1,8.69975E-1,4.3940358E-2,7.1011605E-3,4.555086E-2,2.3855394E-2,2.1062046E-3,9.681597E-3,-6.5733143E-3,-3.290147E-2,-3.347838E-3,-3.357103E-2,4.26379E-3,-2.2327716E-2,-2.3537686E-2,-1.1349634E-3,1.2588339E-2,-5.158167E-3,-1.3566034E-2,5.628984E-3,1.782599E-2,-6.84672E-3,-6.4361985E-3,1.0839197E-2],"split_indices":[48,47,48,48,47,5,32,16,49,48,0,49,22,31,0,47,0,49,46,0,16,46,35,23,0,30,46,0,0,2,48,24,41,0,0,0,37,45,48,0,0,0,0,0,0,0,0,0,0,0,0,0,0,0,0,0,0,0,0,0,0],"split_type":[0,0,0,0,0,0,0,0,0,0,0,0,0,0,0,0,0,0,0,0,0,0,0,0,0,0,0,0,0,0,0,0,0,0,0,0,0,0,0,0,0,0,0,0,0,0,0,0,0,0,0,0,0,0,0,0,0,0,0,0,0],"sum_hessian":[5.97E2,3.89E2,2.08E2,3.77E2,1.2E1,1.58E2,5E1,1.58E2,2.19E2,9E0,3E0,1.47E2,1.1E1,4.8E1,2E0,1.57E2,1E0,1.99E2,2E1,7E0,2E0,1.07E2,4E1,9E0,2E0,4.6E1,2E0,1.5E2,7E0,1.2E1,1.87E2,1.1E1,9E0,1E0,1E0,2.5E1,8.2E1,3.4E1,6E0,8E0,1E0,4.2E1,4E0,1E0,1E0,1E1,2E0,2E0,1.85E2,9E0,2E0,8E0,1E0,2E1,5E0,7.3E1,9E0,3.2E1,2E0,5E0,1E0],"tree_param":{"num_deleted":"0","num_feature":"61","num_nodes":"61","size_leaf_vector":"0"}},{"base_weights":[-1.8694483E-1,-3.3931398E-1,1.06813215E-1,-3.56324E-1,1.8661909E-1,1.360243E-2,3.880065E-1,-3.727269E-1,-9.611706E-2,4.3767583E-1,-3.0260685E-1,-1.5856005E-2,3.6597013E-1,4.0751904E-1,-6.003384E-2,-4.3332574E-1,-3.2293612E-1,-1.3464977E-1,2.1849513E-1,-1.2510955E-2,-3.7200308E-1,-7.4569024E-2,1.4988476E-1,4.1675663E-1,7.4691735E-2,4.256458E-1,-1.2306412E-2,-4.392008E-1,2.4746695E-1,-1.050516E-1,-3.3621424E-1,-8.877794E-3,-2.0588534E-1,8.9236535E-2,-1.2300963E-1,1.740401E-1,-7.950385E-3,4.4194686E-1,9.50222E-2,4.492438E-1,1.3757367E-1,-3.9521664E-2,2.1062046E-2,-4.4695392E-1,-2.3796009E-1,-1.6503428E-1,1.4990209E-1,-3.554114E-1,-2.5581947E-1,-2.6365958E-2,6.551376E-2,-2.322272E-1,6.8279505E-2,1.2492761E-1,-7.851327E-2,-1.4956151E-1,8.577522E-2,1.271092E-1,2.8506592E-1,1.4441857E-1,-6.730789E-2,1.190806E-1,4.542696E-1,2.0708382E-2,1.616129E-1],"categories":[],"categories_nodes":[],"categories_segments":[],"categories_sizes":[],"default_left":[1,1,1,1,1,1,1,1,1,0,1,1,1,1,0,1,1,1,0,0,0,1,1,1,0,1,1,1,0,1,1,1,1,1,1,1,1,0,0,1,1,0,0,0,0,0,0,0,0,0,0,0,0,0,0,0,0,0,0,0,0,0,0,0,0],"id":7,"left_children":[1,3,5,7,9,11,13,15,17,-1,19,21,23,25,-1,27,29,31,-1,-1,-1,33,35,37,-1,39,41,43,-1,45,47,49,51,53,55,57,59,-1,-1,61,63,-1,-1,-1,-1,-1,-1,-1,-1,-1,-1,-1,-1,-1,-1,-1,-1,-1,-1,-1,-1,-1,-1,-1,-1],"loss_changes":[2.680252E1,3.5912666E0,5.3678226E0,1.5946121E0,1.7291489E0,1.614734E0,4.7032738E-1,9.432602E-1,3.2036895E-1,0E0,9.600365E-2,1.412461E0,1.4638782E-1,3.781309E-1,0E0,7.4464035E-1,5.4619217E-1,1.9527987E-1,0E0,0E0,0E0,8.600049E-1,1.4626092E-1,3.9050937E-2,0E0,2.5769806E-1,3.5568E-3,1.4016151E-1,0E0,2.2354543E-1,2.0077324E-1,1.3436078E-2,1.1696458E-1,1.5948774E-1,4.7294986E-1,1.3571346E-1,6.398596E-2,0E0,0E0,1.7256737E-2,1.070001E-2,0E0,0E0,0E0,0E0,0E0,0E0,0E0,0E0,0E0,0E0,0E0,0E0,0E0,0E0,0E0,0E0,0E0,0E0,0E0,0E0,0E0,0E0,0E0,0E0],"parents":[2147483647,0,0,1,1,2,2,3,3,4,4,5,5,6,6,7,7,8,8,10,10,11,11,12,12,13,13,15,15,16,16,17,17,21,21,22,22,23,23,25,25,26,26,27,27,29,29,30,30,31,31,32,32,33,33,34,34,35,35,36,36,39,39,40,40],"right_children":[2,4,6,8,10,12,14,16,18,-1,20,22,24,26,-1,28,30,32,-1,-1,-1,34,36,38,-1,40,42,44,-1,46,48,50,52,54,56,58,60,-1,-1,62,64,-1,-1,-1,-1,-1,-1,-1,-1,-1,-1,-1,-1,-1,-1,-1,-1,-1,-1,-1,-1,-1,-1,-1,-1],"split_conditions":[3.6481E-1,9.8479664E-1,9.637401E-1,2.3945704E-1,9.932039E-1,5E-1,5E-1,7.0092835E-2,5E-1,4.3767583E-2,5E-1,5.228436E-1,5E-1,5E-1,-6.003384E-3,5E-1,1.0205334E-2,9.225857E-2,2.1849513E-2,-1.2510956E-3,-3.720031E-2,1.059831E-1,5E-1,5E-1,7.4691735E-3,5E-1,7.6575136E-1,4.2513645E-1,2.4746696E-2,5E-1,5E-1,5E-1,5E-1,5E-1,5E-1,4.485743E-1,5.014237E-1,4.4194687E-2,9.50222E-3,9.6538067E-1,9.9199975E-1,-3.9521665E-3,2.1062046E-3,-4.4695392E-2,-2.3796009E-2,-1.6503429E-2,1.499021E-2,-3.5541143E-2,-2.5581947E-2,-2.6365959E-3,6.551376E-3,-2.322272E-2,6.8279505E-3,1.2492761E-2,-7.851328E-3,-1.4956151E-2,8.577522E-3,1.2710921E-2,2.8506592E-2,1.4441857E-2,-6.730789E-3,1.1908061E-2,4.542696E-2,2.0708384E-3,1.616129E-2],"split_indices":[48,47,48,49,47,5,32,48,5,0,16,49,22,31,0,16,49,46,0,0,0,46,35,23,0,30,46,47,0,32,21,17,42,0,37,46,47,0,0,48,48,0,0,0,0,0,0,0,0,0,0,0,0,0,0,0,0,0,0,0,0,0,0,0,0],"split_type":[0,0,0,0,0,0,0,0,0,0,0,0,0,0,0,0,0,0,0,0,0,0,0,0,0,0,0,0,0,0,0,0,0,0,0,0,0,0,0,0,0,0,0,0,0,0,0,0,0,0,0,0,0,0,0,0,0,0,0,0,0,0,0,0,0],"sum_hessian":[5.97E2,3.93E2,2.04E2,3.81E2,1.2E1,1.54E2,5E1,3.58E2,2.3E1,8E0,4E0,1.43E2,1.1E1,4.8E1,2E0,1.58E2,2E2,2.1E1,2E0,1E0,3E0,1.06E2,3.7E1,9E0,2E0,4.6E1,2E0,1.57E2,1E0,1.2E1,1.88E2,8E0,1.3E1,2.4E1,8.2E1,3.2E1,5E0,8E0,1E0,4.2E1,4E0,1E0,1E0,1.5E2,7E0,1E1,2E0,1.49E2,3.9E1,7E0,1E0,1.2E1,1E0,2E1,4E0,7.3E1,9E0,2.4E1,8E0,1E0,4E0,1E0,4.1E1,1E0,3E0],"tree_param":{"num_deleted":"0","num_feature":"61","num_nodes":"65","size_leaf_vector":"0"}},{"base_weights":[-1.8690147E-1,-3.3382323E-1,9.638671E-2,-3.5307437E-1,2.575432E-1,4.1359784E-3,3.7486666E-1,-3.7055E-1,-7.695663E-2,3.943492E-1,-3.299265E-1,-2.6769714E-2,3.7465963E-1,3.9393917E-1,-6.1606627E-2,-4.232064E-1,-3.220187E-1,-1.278938E-1,3.2223493E-1,-4.8087537E-2,4.4340163E-1,-8.980669E-2,1.1853721E-1,4.163848E-1,1.106892E-1,4.2374706E-1,4.6880145E-2,-4.2865655E-1,2.4620923E-1,-3.361074E-2,-3.3776715E-1,-5.741006E-2,-3.0628213E-1,7.301615E-2,-1.3607402E-1,1.3671084E-1,-1.9347599E-2,4.4251546E-1,9.0604365E-2,4.350669E-1,-3.7162483E-2,-2.1386042E-2,6.92932E-2,-4.3658006E-1,-2.156133E-1,1.1085174E-1,-1.0164064E-1,-3.6003768E-1,-2.5026262E-1,-1.06666066E-1,5.0670285E-2,-3.0929924E-3,1.9175181E-1,-1.6608283E-1,8.759506E-2,1.49652E-1,-6.84672E-2,-6.65739E-2,1.0839197E-1,4.4875434E-1,2.3855393E-1,2.7846953E-2,9.681597E-2],"categories":[],"categories_nodes":[],"categories_segments":[],"categories_sizes":[],"default_left":[1,1,1,1,1,1,1,1,1,1,0,1,1,1,0,1,1,1,0,0,0,1,1,1,0,1,1,1,0,1,1,1,0,1,1,1,1,0,0,1,0,0,1,0,0,0,0,0,0,0,0,0,0,0,0,0,0,0,0,0,0,0,0],"id":8,"left_children":[1,3,5,7,9,11,13,15,17,19,-1,21,23,25,-1,27,29,31,-1,-1,-1,33,35,37,-1,39,41,43,-1,45,47,49,-1,51,53,55,57,-1,-1,59,-1,-1,61,-1,-1,-1,-1,-1,-1,-1,-1,-1,-1,-1,-1,-1,-1,-1,-1,-1,-1,-1,-1],"loss_changes":[2.4921656E1,4.57642E0,5.264896E0,1.8147583E0,1.1749082E0,1.7849793E0,4.4882536E-1,7.811394E-1,5.292205E-1,2.6005054E-1,0E0,1.3296436E0,8.6081386E-2,4.8704576E-1,0E0,7.221222E-1,8.5616493E-1,2.5903282E-1,0E0,0E0,0E0,7.7080655E-1,1.1290318E-1,4.5034647E-2,0E0,2.509508E-1,9.132178E-3,1.8946075E-1,0E0,1.1937249E-1,2.6262474E-1,9.590609E-2,0E0,2.0844108E-1,5.4479945E-1,1.13800764E-1,4.3412086E-2,0E0,0E0,1.129818E-2,0E0,0E0,1.8668324E-3,0E0,0E0,0E0,0E0,0E0,0E0,0E0,0E0,0E0,0E0,0E0,0E0,0E0,0E0,0E0,0E0,0E0,0E0,0E0,0E0],"parents":[2147483647,0,0,1,1,2,2,3,3,4,4,5,5,6,6,7,7,8,8,9,9,11,11,12,12,13,13,15,15,16,16,17,17,21,21,22,22,23,23,25,25,26,26,27,27,29,29,30,30,31,31,33,33,34,34,35,35,36,36,39,39,42,42],"right_children":[2,4,6,8,10,12,14,16,18,20,-1,22,24,26,-1,28,30,32,-1,-1,-1,34,36,38,-1,40,42,44,-1,46,48,50,-1,52,54,56,58,-1,-1,60,-1,-1,62,-1,-1,-1,-1,-1,-1,-1,-1,-1,-1,-1,-1,-1,-1,-1,-1,-1,-1,-1,-1],"split_conditions":[3.6481E-1,9.8479664E-1,9.637401E-1,2.3945704E-1,9.93922E-1,5E-1,5E-1,8.47243E-2,5E-1,5E-1,-3.299265E-2,4.6207893E-1,5E-1,5E-1,-6.160663E-3,5E-1,1.0205334E-2,3.1112057E-1,3.2223493E-2,-4.8087537E-3,4.4340163E-2,1.059831E-1,5E-1,5E-1,1.1068921E-2,9.92795E-1,9.9199975E-1,4.2513645E-1,2.4620924E-2,1.464616E-3,5E-1,5E-1,-3.0628214E-2,4.022534E-1,5E-1,5E-1,7.959575E-1,4.4251546E-2,9.060437E-3,5E-1,-3.7162483E-3,-2.1386042E-3,9.439375E-1,-4.3658007E-2,-2.156133E-2,1.1085174E-2,-1.0164064E-2,-3.600377E-2,-2.5026262E-2,-1.0666607E-2,5.0670286E-3,-3.0929924E-4,1.9175181E-2,-1.6608283E-2,8.759506E-3,1.4965201E-2,-6.84672E-3,-6.6573904E-3,1.0839197E-2,4.4875436E-2,2.3855394E-2,2.7846952E-3,9.681597E-3],"split_indices":[48,47,48,49,47,5,31,48,5,16,0,49,22,30,0,16,49,46,0,0,0,46,33,23,0,49,48,47,0,49,21,17,0,49,37,44,46,0,0,29,0,0,46,0,0,0,0,0,0,0,0,0,0,0,0,0,0,0,0,0,0,0,0],"split_type":[0,0,0,0,0,0,0,0,0,0,0,0,0,0,0,0,0,0,0,0,0,0,0,0,0,0,0,0,0,0,0,0,0,0,0,0,0,0,0,0,0,0,0,0,0,0,0,0,0,0,0,0,0,0,0,0,0,0,0,0,0,0,0],"sum_hessian":[5.97E2,3.93E2,2.04E2,3.81E2,1.2E1,1.54E2,5E1,3.58E2,2.3E1,1E1,2E0,1.43E2,1.1E1,4.8E1,2E0,1.68E2,1.9E2,2.1E1,2E0,1E0,9E0,1E2,4.3E1,9E0,2E0,4.4E1,4E0,1.67E2,1E0,1E1,1.8E2,1.6E1,5E0,2.2E1,7.8E1,3.8E1,5E0,8E0,1E0,4.3E1,1E0,1E0,3E0,1.6E2,7E0,3E0,7E0,1.41E2,3.9E1,1.1E1,5E0,1.4E1,8E0,6.9E1,9E0,3.6E1,2E0,4E0,1E0,3.9E1,4E0,2E0,1E0],"tree_param":{"num_deleted":"0","num_feature":"61","num_nodes":"63","size_leaf_vector":"0"}},{"base_weights":[-1.8686053E-1,-2.9246372E-1,1.8816635E-1,-1.2267762E-1,-3.589983E-1,7.917123E-2,3.5972387E-1,2.1029566E-1,-1.8347196E-1,-4.3228164E-1,-3.0216604E-1,4.6093814E-2,4.2698735E-1,3.916112E-1,-1.196174E-2,1.1322539E-1,3.5388166E-1,-2.5750569E-1,2.4974822E-1,-4.4856477E-1,-2.9337934E-1,6.158469E-2,-3.10233E-1,-1.1249408E-1,8.060392E-2,4.1301838E-1,-6.003384E-2,2.0668903E-2,-4.060514E-2,1.4289215E-1,-4.3183405E-2,4.0996668E-1,1.23751044E-1,-6.769349E-2,-3.297519E-1,4.478577E-1,-9.7245E-2,-4.5603704E-1,-2.9992437E-1,-7.902286E-2,-3.6974543E-1,-4.726094E-2,1.4990209E-1,-3.4152365E-1,-2.0909458E-1,-1.9126967E-1,-2.9503684E-2,1.5718727E-1,-1.4603698E-2,4.3653557E-1,1.3757367E-1,-2.8693572E-2,1.6109936E-1,3.0384826E-2,-2.2203131E-1,-3.413528E-1,2.353538E-1,-1.9273554E-1,2.3784912E-1,-9.356758E-2,-3.1496435E-3,-3.9897218E-1,-9.512246E-3,-3.458968E-1,-2.360179E-2,-2.348292E-1,-2.849259E-2,-6.622438E-2,5.377227E-2,2.1258691E-1,5.8903012E-2,-9.510148E-2,2.0859067E-1,1.616129E-1,2.0708382E-2],"categories":[],"categories_nodes":[],"categories_segments":[],"categories_sizes":[],"default_left":[1,1,1,1,1,1,1,1,1,1,1,1,0,1,1,1,1,1,1,1,1,1,1,1,1,1,0,0,0,1,0,0,0,1,1,0,1,0,0,1,1,0,0,1,1,0,1,1,1,0,1,0,0,0,0,0,0,0,0,0,0,0,0,0,0,0,0,0,0,0,0,0,0,0,0],"id":9,"left_children":[1,3,5,7,9,11,13,15,17,19,21,23,-1,25,27,29,31,33,35,37,39,41,43,45,47,49,-1,-1,-1,51,-1,-1,-1,53,55,-1,57,-1,-1,59,61,-1,-1,63,65,-1,67,69,71,-1,73,-1,-1,-1,-1,-1,-1,-1,-1,-1,-1,-1,-1,-1,-1,-1,-1,-1,-1,-1,-1,-1,-1,-1,-1],"loss_changes":[2.373824E1,5.2314987E0,2.4397788E0,2.7308884E0,1.2646065E0,9.23717E-1,6.0913897E-1,2.5262815E-1,3.6885498E0,1.9409561E-1,5.8250237E-1,4.2500675E-1,0E0,4.7921228E-1,5.5125263E-3,7.113254E-2,5.252111E-2,1.3078594E0,1.212177E0,4.278183E-3,2.6543403E-1,5.514933E-2,5.2355003E-1,8.588345E-2,4.616485E-1,2.3144054E-1,0E0,0E0,0E0,4.211168E-2,0E0,0E0,0E0,4.3058774E-1,5.39238E-1,0E0,2.698302E-1,0E0,0E0,6.3266233E-3,1.3307464E-1,0E0,0E0,1.8926239E-1,2.1175194E-1,0E0,2.8024646E-2,1.7804992E-1,5.408702E-1,0E0,1.070001E-2,0E0,0E0,0E0,0E0,0E0,0E0,0E0,0E0,0E0,0E0,0E0,0E0,0E0,0E0,0E0,0E0,0E0,0E0,0E0,0E0,0E0,0E0,0E0,0E0],"parents":[2147483647,0,0,1,1,2,2,3,3,4,4,5,5,6,6,7,7,8,8,9,9,10,10,11,11,13,13,14,14,15,15,16,16,17,17,18,18,19,19,20,20,21,21,22,22,23,23,24,24,25,25,29,29,33,33,34,34,36,36,39,39,40,40,43,43,44,44,46,46,47,47,48,48,50,50],"right_children":[2,4,6,8,10,12,14,16,18,20,22,24,-1,26,28,30,32,34,36,38,40,42,44,46,48,50,-1,-1,-1,52,-1,-1,-1,54,56,-1,58,-1,-1,60,62,-1,-1,64,66,-1,68,70,72,-1,74,-1,-1,-1,-1,-1,-1,-1,-1,-1,-1,-1,-1,-1,-1,-1,-1,-1,-1,-1,-1,-1,-1,-1,-1],"split_conditions":[5.268784E-1,5E-1,9.637401E-1,1.749412E-1,8.47243E-2,5E-1,5E-1,5E-1,9.8108053E-1,5E-1,5.2345963E-3,3.6171854E-1,4.2698737E-2,5E-1,9.9405575E-1,5E-1,5E-1,2.6717353E-1,6.6116E-2,5E-1,1.4862798E-3,5E-1,2.6953536E-1,6.921142E-1,2.2067288E-1,5E-1,-6.003384E-3,2.0668905E-3,-4.060514E-3,1.0716217E-3,-4.3183407E-3,4.0996667E-2,1.2375104E-2,5E-1,5E-1,4.478577E-2,5E-1,-4.5603704E-2,-2.9992437E-2,2.439885E-2,5E-1,-4.726094E-3,1.499021E-2,2.3151083E-1,5E-1,-1.9126967E-2,5E-1,6.3688505E-1,7.6470923E-1,4.365356E-2,9.9757206E-1,-2.8693571E-3,1.6109936E-2,3.0384825E-3,-2.220313E-2,-3.413528E-2,2.353538E-2,-1.9273555E-2,2.3784911E-2,-9.356759E-3,-3.1496436E-4,-3.989722E-2,-9.512246E-4,-3.458968E-2,-2.360179E-3,-2.348292E-2,-2.8492592E-3,-6.6224383E-3,5.377227E-3,2.1258691E-2,5.8903014E-3,-9.510148E-3,2.0859068E-2,1.616129E-2,2.0708384E-3],"split_indices":[48,51,48,46,48,5,30,5,47,4,49,49,0,31,48,27,22,47,48,21,49,31,48,48,47,29,0,0,0,46,0,0,0,19,10,0,10,0,0,48,33,0,0,49,4,0,4,49,49,0,47,0,0,0,0,0,0,0,0,0,0,0,0,0,0,0,0,0,0,0,0,0,0,0,0],"split_type":[0,0,0,0,0,0,0,0,0,0,0,0,0,0,0,0,0,0,0,0,0,0,0,0,0,0,0,0,0,0,0,0,0,0,0,0,0,0,0,0,0,0,0,0,0,0,0,0,0,0,0,0,0,0,0,0,0,0,0,0,0,0,0,0,0,0,0,0,0,0,0,0,0,0,0],"sum_hessian":[5.97E2,4.66E2,1.31E2,1.32E2,3.34E2,8.1E1,5E1,2E1,1.12E2,1.43E2,1.91E2,7.5E1,6E0,4.6E1,4E0,1.3E1,7E0,9.6E1,1.6E1,1.26E2,1.7E1,4E0,1.87E2,1.3E1,6.2E1,4.4E1,2E0,2E0,2E0,1.1E1,2E0,5E0,2E0,2.7E1,6.9E1,1E1,6E0,1.18E2,8E0,5E0,1.2E1,2E0,2E0,1.41E2,4.6E1,6E0,7E0,3.4E1,2.8E1,4E1,4E0,1E0,1E1,1.7E1,1E1,6.8E1,1E0,5E0,1E0,4E0,1E0,1.1E1,1E0,1.39E2,2E0,4E1,6E0,5E0,2E0,2.1E1,1.3E1,2.1E1,7E0,3E0,1E0],"tree_param":{"num_deleted":"0","num_feature":"61","num_nodes":"75","size_leaf_vector":"0"}},{"base_weights":[-1.686327E-1,-3.321408E-1,1.6087423E-1,-3.8926068E-1,-2.4030423E-1,6.2042248E-2,4.0599877E-1,-4.13056E-1,-3.309125E-1,-2.640358E-1,-1.3183048E-1,-1.171315E-3,1.4703706E-1,4.2103615E-1,1.0149433E-1,-4.2178196E-1,-2.6301563E-1,-7.388377E-2,-3.3335444E-1,-2.6623672E-1,6.640941E-3,-1.4101662E-1,6.72836E-2,-2.2828666E-2,1.7943676E-1,1.6361089E-1,-7.131206E-2,-4.2459634E-1,-2.0657541E-1,3.0659416E-1,-4.07597E-1,-2.6885292E-1,-6.935423E-2,-1.5325327E-1,1.6118774E-2,2.9744538E-2,-6.2644646E-2,2.2102931E-1,2.257522E-2,1.768461E-1,2.1637226E-2,-2.7266553E-1,-1.484275E-1,-1.630744E-1,5.104816E-2,7.8817904E-2,-5.463974E-2,6.579408E-2,-3.0777376E-2,-1.18773974E-1,-3.1452075E-2,3.0295277E-1,8.384855E-2,1.3017753E-1,2.1523637E-1,-2.4951272E-2,7.654282E-2],"categories":[],"categories_nodes":[],"categories_segments":[],"categories_sizes":[],"default_left":[1,1,1,1,1,1,1,1,1,1,1,1,1,0,0,1,1,0,0,1,0,1,0,1,1,1,0,0,0,0,0,1,0,1,1,1,1,1,0,1,1,0,0,0,0,0,0,0,0,0,0,0,0,0,0,0,0],"id":10,"left_children":[1,3,5,7,9,11,13,15,17,19,21,23,25,-1,-1,27,29,-1,-1,31,-1,33,-1,35,37,39,-1,-1,-1,-1,-1,41,-1,43,45,47,49,51,-1,53,55,-1,-1,-1,-1,-1,-1,-1,-1,-1,-1,-1,-1,-1,-1,-1,-1],"loss_changes":[3.227191E1,2.0047379E0,4.795814E0,2.0347977E-1,3.667755E-1,7.684862E-1,2.1826649E-1,1.1163521E-1,2.3071289E-2,7.7427864E-2,6.436074E-2,3.287502E-1,2.3241925E-1,0E0,0E0,8.590698E-3,1.1132264E0,0E0,0E0,4.6254158E-2,0E0,5.823183E-2,0E0,1.5885735E-1,5.372864E-2,1.0327947E-1,0E0,0E0,0E0,0E0,0E0,1.6461372E-2,0E0,6.2499344E-2,1.7616082E-2,7.402395E-2,7.154949E-2,5.3266108E-2,0E0,6.514537E-2,1.7257653E-2,0E0,0E0,0E0,0E0,0E0,0E0,0E0,0E0,0E0,0E0,0E0,0E0,0E0,0E0,0E0,0E0],"parents":[2147483647,0,0,1,1,2,2,3,3,4,4,5,5,6,6,7,7,8,8,9,9,10,10,11,11,12,12,15,15,16,16,19,19,21,21,23,23,24,24,25,25,31,31,33,33,34,34,35,35,36,36,37,37,39,39,40,40],"right_children":[2,4,6,8,10,12,14,16,18,20,22,24,26,-1,-1,28,30,-1,-1,32,-1,34,-1,36,38,40,-1,-1,-1,-1,-1,42,-1,44,46,48,50,52,-1,54,56,-1,-1,-1,-1,-1,-1,-1,-1,-1,-1,-1,-1,-1,-1,-1,-1],"split_conditions":[3.7943542E-1,1.4467308E-1,9.2622244E-1,7.1315795E-2,2.3945704E-1,6.1516845E-1,5E-1,5E-1,7.283126E-2,5E-1,5E-1,5E-1,5E-1,4.2103615E-2,1.0149433E-2,5E-1,9.928484E-1,-7.388377E-3,-3.3335444E-2,3.4696025E-1,6.640941E-4,5E-1,6.72836E-3,1.1450423E-1,5E-1,5E-1,-7.1312063E-3,-4.2459633E-2,-2.0657541E-2,3.0659417E-2,-4.07597E-2,5E-1,-6.935423E-3,5E-1,5E-1,3.611492E-1,2.0362975E-1,4.0759006E-1,2.257522E-3,7.2931814E-1,7.926219E-1,-2.7266553E-2,-1.48427505E-2,-1.6307442E-2,5.104816E-3,7.88179E-3,-5.463974E-3,6.579408E-3,-3.0777378E-3,-1.1877398E-2,-3.1452074E-3,3.0295277E-2,8.384855E-3,1.3017753E-2,2.1523638E-2,-2.4951273E-3,7.654282E-3],"split_indices":[48,48,48,48,49,48,17,16,48,17,30,37,38,0,0,20,46,0,0,48,0,5,0,47,18,35,0,0,0,0,0,30,0,27,23,49,47,48,0,48,48,0,0,0,0,0,0,0,0,0,0,0,0,0,0,0,0],"split_type":[0,0,0,0,0,0,0,0,0,0,0,0,0,0,0,0,0,0,0,0,0,0,0,0,0,0,0,0,0,0,0,0,0,0,0,0,0,0,0,0,0,0,0,0,0,0,0,0,0,0,0,0,0,0,0,0,0],"sum_hessian":[5.97E2,3.99E2,1.98E2,2.44E2,1.55E2,1.42E2,5.6E1,1.69E2,7.5E1,1.26E2,2.9E1,8.2E1,6E1,5.3E1,3E0,1.58E2,1.1E1,1E0,7.4E1,1.25E2,1E0,2.8E1,1E0,7.4E1,8E0,5.6E1,4E0,1.55E2,3E0,2E0,9E0,1.23E2,2E0,2.6E1,2E0,3.2E1,4.2E1,6E0,2E0,5.1E1,5E0,1.18E2,5E0,2.5E1,1E0,1E0,1E0,2E1,1.2E1,1.4E1,2.8E1,3E0,3E0,2.5E1,2.6E1,3E0,2E0],"tree_param":{"num_deleted":"0","num_feature":"61","num_nodes":"57","size_leaf_vector":"0"}},{"base_weights":[-1.68455E-1,-3.285705E-1,1.5181765E-1,-3.7300017E-1,-2.2463584E-1,5.9627835E-2,4.1998732E-1,-4.058446E-1,-3.191483E-1,-2.4063495E-1,-4.1314423E-2,8.782869E-4,1.3644065E-1,-4.1986296E-1,-1.8744901E-1,-3.2375386E-1,-1.5768038E-1,-2.4635093E-1,4.9162846E-2,-6.983134E-2,1.2192738E-1,-1.9704597E-2,1.7916569E-1,1.5329812E-1,-5.487426E-2,-4.2283556E-1,-1.9970962E-1,1.8726407E-1,-3.9821357E-1,-2.5718787E-1,-9.616004E-2,-5.073637E-3,7.8817904E-2,-8.512496E-2,-5.7712398E-3,4.2880323E-2,-6.9040224E-2,6.3075125E-4,2.6832804E-1,2.2159714E-1,1.1624256E-1,-9.9785656E-2,-7.47215E-3,3.461119E-1,-2.2406359E-1,-1.4058901E-1,-2.6301083E-1,-4.411555E-2,-1.8554382E-1,-9.4954416E-2,-8.159399E-3,1.6661763E-2,-2.5318623E-2,8.029038E-2,-5.867385E-2,-8.171873E-2,1.3147224E-1,1.8319845E-2,-1.1372228E-2,2.380569E-1,9.624389E-2,-2.933491E-2,1.4707719E-1,1.0650854E-2,-3.092058E-2],"categories":[],"categories_nodes":[],"categories_segments":[],"categories_sizes":[],"default_left":[1,1,1,1,1,1,0,1,1,1,1,1,1,1,1,0,0,1,1,1,0,1,1,1,1,0,0,1,0,1,1,0,0,1,1,1,1,1,0,1,1,0,1,0,0,0,0,0,0,0,0,0,0,0,0,0,0,0,0,0,0,0,0,0,0],"id":11,"left_children":[1,3,5,7,9,11,-1,13,15,17,19,21,23,25,27,-1,-1,29,31,33,-1,35,37,39,41,-1,-1,43,-1,45,47,-1,-1,49,51,53,55,57,-1,59,61,-1,63,-1,-1,-1,-1,-1,-1,-1,-1,-1,-1,-1,-1,-1,-1,-1,-1,-1,-1,-1,-1,-1,-1],"loss_changes":[3.0715685E1,1.7587051E0,4.9194593E0,3.6218262E-1,3.478818E-1,6.767878E-1,0E0,4.3870163E-1,3.0751228E-2,1.976366E-1,5.9721034E-2,3.1912193E-1,2.1804285E-1,1.895523E-2,1.0222858E0,0E0,0E0,1.5430593E-1,5.2250517E-3,9.305835E-3,0E0,2.437984E-1,1.4309806E-1,1.2609243E-1,1.2027755E-2,0E0,0E0,4.0424353E-1,0E0,3.227663E-2,3.3682033E-2,0E0,0E0,5.2774586E-3,1.7373725E-3,1.3768108E-1,1.22600466E-1,1.0576248E-3,0E0,1.8354177E-2,1.883564E-1,0E0,2.0291544E-3,0E0,0E0,0E0,0E0,0E0,0E0,0E0,0E0,0E0,0E0,0E0,0E0,0E0,0E0,0E0,0E0,0E0,0E0,0E0,0E0,0E0,0E0],"parents":[2147483647,0,0,1,1,2,2,3,3,4,4,5,5,7,7,8,8,9,9,10,10,11,11,12,12,13,13,14,14,17,17,18,18,19,19,21,21,22,22,23,23,24,24,27,27,29,29,30,30,33,33,34,34,35,35,36,36,37,37,39,39,40,40,42,42],"right_children":[2,4,6,8,10,12,-1,14,16,18,20,22,24,26,28,-1,-1,30,32,34,-1,36,38,40,42,-1,-1,44,-1,46,48,-1,-1,50,52,54,56,58,-1,60,62,-1,64,-1,-1,-1,-1,-1,-1,-1,-1,-1,-1,-1,-1,-1,-1,-1,-1,-1,-1,-1,-1,-1,-1],"split_conditions":[3.780401E-1,1.7421028E-1,9.637401E-1,7.0092835E-2,5E-1,6.2395823E-1,4.1998733E-2,5E-1,5E-1,5E-1,5E-1,5E-1,5E-1,5E-1,9.930986E-1,-3.2375388E-2,-1.5768038E-2,3.4696025E-1,5E-1,5E-1,1.2192738E-2,1.1450423E-1,2.5626436E-1,1.0662854E-2,7.264098E-1,-4.2283557E-2,-1.9970963E-2,5E-1,-3.9821357E-2,3.7388235E-2,3.5848188E-1,-5.073637E-4,7.88179E-3,5E-1,6.374628E-1,5E-1,5E-1,4.4302106E-1,2.6832804E-2,5E-1,2.755096E-2,-9.978565E-3,6.480106E-1,3.461119E-2,-2.240636E-2,-1.4058902E-2,-2.6301084E-2,-4.4115554E-3,-1.8554382E-2,-9.495442E-3,-8.159399E-4,1.6661764E-3,-2.5318624E-3,8.029038E-3,-5.8673853E-3,-8.171873E-3,1.3147225E-2,1.8319845E-3,-1.1372229E-3,2.380569E-2,9.624389E-3,-2.933491E-3,1.4707719E-2,1.0650854E-3,-3.092058E-3],"split_indices":[48,48,48,48,17,48,0,16,32,5,30,37,35,20,47,0,0,48,23,37,0,47,47,46,48,0,0,25,0,49,49,0,0,43,46,0,15,48,0,25,47,0,47,0,0,0,0,0,0,0,0,0,0,0,0,0,0,0,0,0,0,0,0,0,0],"split_type":[0,0,0,0,0,0,0,0,0,0,0,0,0,0,0,0,0,0,0,0,0,0,0,0,0,0,0,0,0,0,0,0,0,0,0,0,0,0,0,0,0,0,0,0,0,0,0,0,0,0,0,0,0,0,0,0,0,0,0,0,0,0,0,0,0],"sum_hessian":[5.97E2,3.98E2,1.99E2,2.77E2,1.21E2,1.49E2,5E1,1.68E2,1.09E2,1.11E2,1E1,8.5E1,6.4E1,1.57E2,1.1E1,1.05E2,4E0,1.09E2,2E0,9E0,1E0,7.7E1,8E0,5.9E1,5E0,1.54E2,3E0,4E0,7E0,1.01E2,8E0,1E0,1E0,7E0,2E0,3.4E1,4.3E1,3E0,5E0,1.9E1,4E1,2E0,3E0,3E0,1E0,6E0,9.5E1,6E0,2E0,6E0,1E0,1E0,1E0,2.5E1,9E0,4.1E1,2E0,1E0,2E0,1.6E1,3E0,7E0,3.3E1,2E0,1E0],"tree_param":{"num_deleted":"0","num_feature":"61","num_nodes":"65","size_leaf_vector":"0"}},{"base_weights":[-1.6845025E-1,-3.302649E-1,1.3430655E-1,-3.884485E-1,-2.6568228E-1,4.4769555E-2,4.108178E-1,-4.0357995E-1,-1.1397447E-1,-2.7703047E-1,-3.598178E-2,-2.5829388E-2,1.16589114E-1,4.1704646E-1,1.7214382E-1,-4.182248E-1,-3.2593802E-1,3.6203703E-1,-3.9723486E-1,-2.8052884E-1,2.1718105E-2,-6.429704E-2,1.0942778E-1,-3.7774395E-2,2.9733232E-1,1.6890796E-1,3.4426933E-3,-3.389714E-1,-1.4018625E-1,-2.930864E-1,-2.3590973E-1,3.7650794E-2,-5.073637E-3,-7.399441E-2,6.640941E-3,-4.9605813E-2,1.9646609E-1,1.7828417E-1,-4.991557E-2,1.10763304E-1,-5.0408874E-2,-3.4828687E-1,-1.3282637E-1,-1.6689391E-1,-2.9668382E-1,-1.01866536E-1,-2.504828E-1,-7.972157E-2,-1.6952142E-2,3.1541914E-2,-9.0002574E-2,6.0205042E-2,2.2181809E-1,1.8785003E-1,-4.0574998E-2,1.8131603E-1,-2.2756621E-2,9.902252E-2,-8.689665E-2],"categories":[],"categories_nodes":[],"categories_segments":[],"categories_sizes":[],"default_left":[1,1,1,1,1,1,1,1,1,1,1,1,1,0,0,0,1,0,0,1,1,1,0,1,0,1,1,1,0,1,1,0,0,1,0,1,1,1,0,1,1,0,0,0,0,0,0,0,0,0,0,0,0,0,0,0,0,0,0],"id":12,"left_children":[1,3,5,7,9,11,13,15,17,19,21,23,25,-1,-1,-1,27,-1,-1,29,31,33,-1,35,-1,37,39,41,-1,43,45,-1,-1,47,-1,49,51,53,-1,55,57,-1,-1,-1,-1,-1,-1,-1,-1,-1,-1,-1,-1,-1,-1,-1,-1,-1,-1],"loss_changes":[2.9340664E1,1.3622856E0,5.156027E0,7.9709816E-1,4.8008823E-1,8.092027E-1,4.0254593E-3,8.1998825E-2,1.761836E0,1.931715E-1,4.820898E-2,3.2390526E-1,4.6707404E-1,0E0,0E0,0E0,3.7215233E-2,0E0,0E0,3.0033112E-2,1.4716198E-3,6.682597E-3,0E0,2.2868618E-1,0E0,1.196928E-1,1.558474E-1,1.5188694E-2,0E0,1.1317253E-2,6.043458E-2,0E0,0E0,1.2620687E-3,0E0,2.5197488E-1,4.633814E-4,1.1648798E-1,0E0,8.8907905E-2,1.0674828E-1,0E0,0E0,0E0,0E0,0E0,0E0,0E0,0E0,0E0,0E0,0E0,0E0,0E0,0E0,0E0,0E0,0E0,0E0],"parents":[2147483647,0,0,1,1,2,2,3,3,4,4,5,5,6,6,7,7,8,8,9,9,10,10,11,11,12,12,16,16,19,19,20,20,21,21,23,23,25,25,26,26,27,27,29,29,30,30,33,33,35,35,36,36,37,37,39,39,40,40],"right_children":[2,4,6,8,10,12,14,16,18,20,22,24,26,-1,-1,-1,28,-1,-1,30,32,34,-1,36,-1,38,40,42,-1,44,46,-1,-1,48,-1,50,52,54,-1,56,58,-1,-1,-1,-1,-1,-1,-1,-1,-1,-1,-1,-1,-1,-1,-1,-1,-1,-1],"split_conditions":[3.4696025E-1,1.03489995E-1,9.637401E-1,5E-1,5E-1,5.3860915E-1,5E-1,7.0092835E-2,9.930986E-1,5E-1,5E-1,5E-1,3.877076E-1,4.1704647E-2,1.7214382E-2,-4.1822482E-2,5E-1,3.6203705E-2,-3.9723486E-2,2.497654E-1,5E-1,5E-1,1.0942779E-2,9.901632E-1,2.9733231E-2,5E-1,4.1895562E-1,5E-1,-1.4018625E-2,1.1255661E-2,8.811867E-2,3.7650794E-3,-5.073637E-4,5E-1,6.640941E-4,1.4312449E-1,9.9823904E-1,5E-1,-4.991557E-3,8.025316E-1,6.1947644E-1,-3.482869E-2,-1.3282637E-2,-1.6689392E-2,-2.9668381E-2,-1.0186654E-2,-2.504828E-2,-7.972158E-3,-1.6952142E-3,3.1541914E-3,-9.000258E-3,6.0205045E-3,2.2181809E-2,1.8785004E-2,-4.0575E-3,1.8131604E-2,-2.2756623E-3,9.902253E-3,-8.689665E-3],"split_indices":[48,48,48,16,17,48,32,48,47,5,30,10,46,0,0,0,32,0,0,48,23,36,0,46,0,30,49,33,0,49,49,0,0,43,0,46,46,4,0,48,48,0,0,0,0,0,0,0,0,0,0,0,0,0,0,0,0,0,0],"split_type":[0,0,0,0,0,0,0,0,0,0,0,0,0,0,0,0,0,0,0,0,0,0,0,0,0,0,0,0,0,0,0,0,0,0,0,0,0,0,0,0,0,0,0,0,0,0,0,0,0,0,0,0,0,0,0,0,0,0,0],"sum_hessian":[5.97E2,3.89E2,2.08E2,2.02E2,1.87E2,1.58E2,5E1,1.91E2,1.1E1,1.78E2,9E0,8E1,7.8E1,4.8E1,2E0,1.57E2,3.4E1,4E0,7E0,1.76E2,2E0,8E0,1E0,7.8E1,2E0,5.3E1,2.5E1,3.1E1,3E0,1.33E2,4.3E1,1E0,1E0,7E0,1E0,7.5E1,3E0,5.1E1,2E0,8E0,1.7E1,2.9E1,2E0,5E0,1.28E2,5E0,3.8E1,6E0,1E0,2.5E1,5E1,1E0,2E0,4.9E1,2E0,5E0,3E0,3E0,1.4E1],"tree_param":{"num_deleted":"0","num_feature":"61","num_nodes":"59","size_leaf_vector":"0"}},{"base_weights":[-1.6869637E-1,-3.249097E-1,1.2360927E-1,-3.8112783E-1,-2.624778E-1,3.3243403E-2,4.0291443E-1,-4.003651E-1,-4.1570775E-2,-2.7453396E-1,-2.0424685E-2,7.766605E-2,-6.515129E-2,4.1179273E-1,1.2359778E-1,-4.2309895E-1,-3.505535E-1,2.5512612E-1,-3.8078868E-1,-2.7848667E-1,5.018745E-2,-7.0325434E-2,2.1434101E-1,1.2275919E-1,-9.824103E-2,-1.0020682E-1,1.0568024E-1,-3.604521E-1,-1.5770027E-1,3.7547323E-1,-2.3347822E-1,-2.9261962E-1,-2.0794836E-1,1.3563722E-2,-9.623144E-2,5.512385E-2,1.6233815E-1,-3.664035E-2,-2.0916227E-1,-1.215451E-1,1.3289306E-1,-5.144325E-2,1.579217E-1,-3.6327136E-1,-9.423876E-2,-3.224565E-2,-1.8100251E-1,-1.2858833E-1,-2.9755938E-1,6.348896E-2,-2.2750847E-1,2.8311044E-2,-7.96546E-3,-1.0451434E-1,-2.3267016E-2,2.9349752E-2,3.11673E-1,1.3283072E-1,3.456989E-1,4.1022826E-2,-6.5946646E-2,-1.4128675E-1,1.0581781E-2,-1.9294024E-4,1.7731936E-1,1.8253775E-1,5.1127374E-3],"categories":[],"categories_nodes":[],"categories_segments":[],"categories_sizes":[],"default_left":[1,1,1,1,1,1,1,1,1,1,1,1,1,0,0,0,1,1,0,1,0,1,0,1,1,1,1,1,1,0,0,1,1,1,1,1,1,1,0,1,1,0,1,0,0,0,0,0,0,0,0,0,0,0,0,0,0,0,0,0,0,0,0,0,0,0,0],"id":13,"left_children":[1,3,5,7,9,11,13,15,17,19,21,23,25,-1,-1,-1,27,29,-1,31,-1,33,-1,35,37,39,41,43,45,-1,-1,47,49,51,53,55,57,59,-1,61,63,-1,65,-1,-1,-1,-1,-1,-1,-1,-1,-1,-1,-1,-1,-1,-1,-1,-1,-1,-1,-1,-1,-1,-1,-1,-1],"loss_changes":[2.7346056E1,1.2687836E0,5.261694E0,1.3093834E0,5.4302025E-1,7.000415E-1,7.5574875E-2,6.910324E-2,1.304888E0,2.4372768E-1,1.3222346E-1,8.846023E-1,3.1001943E-1,0E0,0E0,0E0,6.914902E-2,4.992796E-1,0E0,1.156044E-1,0E0,2.0864353E-2,0E0,2.2662163E-1,1.4949115E-1,2.2505829E-1,8.199925E-2,1.2298584E-2,8.780323E-3,0E0,0E0,7.922745E-2,1.896528E-1,1.1780038E-3,1.7987639E-3,2.1567146E-1,2.5165808E-1,3.9121635E-2,0E0,1.0322285E-1,2.3684293E-2,0E0,2.5397599E-2,0E0,0E0,0E0,0E0,0E0,0E0,0E0,0E0,0E0,0E0,0E0,0E0,0E0,0E0,0E0,0E0,0E0,0E0,0E0,0E0,0E0,0E0,0E0,0E0],"parents":[2147483647,0,0,1,1,2,2,3,3,4,4,5,5,6,6,7,7,8,8,9,9,10,10,11,11,12,12,16,16,17,17,19,19,21,21,23,23,24,24,25,25,26,26,27,27,28,28,31,31,32,32,33,33,34,34,35,35,36,36,37,37,39,39,40,40,42,42],"right_children":[2,4,6,8,10,12,14,16,18,20,22,24,26,-1,-1,-1,28,30,-1,32,-1,34,-1,36,38,40,42,44,46,-1,-1,48,50,52,54,56,58,60,-1,62,64,-1,66,-1,-1,-1,-1,-1,-1,-1,-1,-1,-1,-1,-1,-1,-1,-1,-1,-1,-1,-1,-1,-1,-1,-1,-1],"split_conditions":[3.4696025E-1,1.03489995E-1,9.637401E-1,5E-1,5E-1,4.1638264E-1,5E-1,3.805991E-2,1.0700435E-3,5E-1,5E-1,5E-1,9.9375033E-1,4.1179273E-2,1.2359778E-2,-4.2309895E-2,5E-1,5E-1,-3.807887E-2,2.7284014E-1,5.018745E-3,1.6804153E-1,2.1434102E-2,5.268784E-1,7.41825E-2,5E-1,1.6411336E-3,5E-1,1.01953775E-1,3.7547324E-2,-2.3347823E-2,1.1255661E-2,7.657164E-2,5E-1,5E-1,5E-1,5E-1,3.8476235E-1,-2.0916227E-2,5E-1,5E-1,-5.144325E-3,5.996822E-1,-3.6327135E-2,-9.423876E-3,-3.2245652E-3,-1.8100252E-2,-1.2858833E-2,-2.9755939E-2,6.3488963E-3,-2.2750847E-2,2.8311044E-3,-7.9654605E-4,-1.0451434E-2,-2.3267015E-3,2.9349753E-3,3.1167299E-2,1.3283073E-2,3.456989E-2,4.1022827E-3,-6.594665E-3,-1.4128675E-2,1.0581781E-3,-1.9294024E-5,1.7731937E-2,1.8253775E-2,5.1127374E-4],"split_indices":[48,48,48,16,17,46,32,48,49,5,30,51,46,0,0,0,32,24,0,48,0,46,0,48,47,36,47,30,46,0,0,49,49,42,36,10,5,48,0,37,16,0,49,0,0,0,0,0,0,0,0,0,0,0,0,0,0,0,0,0,0,0,0,0,0,0,0],"split_type":[0,0,0,0,0,0,0,0,0,0,0,0,0,0,0,0,0,0,0,0,0,0,0,0,0,0,0,0,0,0,0,0,0,0,0,0,0,0,0,0,0,0,0,0,0,0,0,0,0,0,0,0,0,0,0,0,0,0,0,0,0,0,0,0,0,0,0],"sum_hessian":[5.97E2,3.89E2,2.08E2,2.02E2,1.87E2,1.58E2,5E1,1.91E2,1.1E1,1.78E2,9E0,1.09E2,4.9E1,4.8E1,2E0,1.26E2,6.5E1,6E0,5E0,1.76E2,2E0,8E0,1E0,8.7E1,2.2E1,4.1E1,8E0,6.1E1,4E0,5E0,1E0,1.44E2,3.2E1,2E0,6E0,3.3E1,5.4E1,1.5E1,7E0,3.8E1,3E0,2E0,6E0,6E1,1E0,1E0,3E0,5E0,1.39E2,2E0,3E1,1E0,1E0,5E0,1E0,3.1E1,2E0,4.8E1,6E0,4E0,1.1E1,3.3E1,5E0,1E0,2E0,5E0,1E0],"tree_param":{"num_deleted":"0","num_feature":"61","num_nodes":"67","size_leaf_vector":"0"}},{"base_weights":[-1.6847272E-1,-3.2223192E-1,1.13005035E-1,-3.320214E-1,-1.5056523E-2,2.4316141E-2,3.925069E-1,-4.0282235E-1,-2.7261376E-1,3.7446904E-1,-3.0531862E-1,4.468045E-3,2.72045E-1,4.039568E-1,7.465609E-2,-4.0790933E-1,2.2589704E-1,-2.8743306E-1,-1.2766972E-1,1.5020734E-1,-3.9185196E-1,1.3385022E-1,-4.4973038E-2,3.8606986E-1,9.367516E-2,9.197518E-2,2.0008951E-2,-1.3215484E-1,-2.954592E-1,-1.5211584E-1,6.971228E-2,1.5367928E-1,-1.0737404E-2,-8.07399E-2,1.3058086E-1,1.24224156E-1,2.1718105E-2,-1.452376E-1,-4.8854966E-2,-3.0540565E-1,-2.1150002E-1,-9.284641E-2,-2.404568E-1,1.6905715E-1,-1.5452333E-2,8.365586E-3,-3.2628924E-2,-9.276129E-2,2.0692115E-1,1.8771924E-1,5.8123297E-3,3.7650794E-2,-5.073637E-3],"categories":[],"categories_nodes":[],"categories_segments":[],"categories_sizes":[],"default_left":[1,1,1,1,1,1,1,1,1,0,1,1,1,0,1,0,0,1,1,0,0,1,1,0,1,0,0,1,1,1,0,1,1,1,1,0,1,0,0,0,0,0,0,0,0,0,0,0,0,0,0,0,0],"id":14,"left_children":[1,3,5,7,9,11,13,15,17,-1,19,21,23,-1,25,-1,-1,27,29,-1,-1,31,33,-1,35,-1,-1,37,39,41,-1,43,45,47,49,-1,51,-1,-1,-1,-1,-1,-1,-1,-1,-1,-1,-1,-1,-1,-1,-1,-1],"loss_changes":[2.591773E1,1.1587448E0,5.2456627E0,1.4674759E0,1.5841708E0,7.9532975E-1,1.5544939E-1,6.326561E-1,4.079342E-1,0E0,3.7420452E-1,9.7193563E-1,2.0789796E-1,0E0,9.989887E-4,0E0,0E0,1.9400978E-1,1.11934066E-1,0E0,0E0,1.2206566E-1,7.0123434E-1,0E0,1.0491382E-2,0E0,0E0,4.8921257E-3,8.321762E-2,7.715687E-2,0E0,9.8844945E-2,2.782121E-3,3.3733833E-1,1.3436127E-1,0E0,1.4716198E-3,0E0,0E0,0E0,0E0,0E0,0E0,0E0,0E0,0E0,0E0,0E0,0E0,0E0,0E0,0E0,0E0],"parents":[2147483647,0,0,1,1,2,2,3,3,4,4,5,5,6,6,7,7,8,8,10,10,11,11,12,12,14,14,17,17,18,18,21,21,22,22,24,24,27,27,28,28,29,29,31,31,32,32,33,33,34,34,36,36],"right_children":[2,4,6,8,10,12,14,16,18,-1,20,22,24,-1,26,-1,-1,28,30,-1,-1,32,34,-1,36,-1,-1,38,40,42,-1,44,46,48,50,-1,52,-1,-1,-1,-1,-1,-1,-1,-1,-1,-1,-1,-1,-1,-1,-1,-1],"split_conditions":[3.4286386E-1,9.8428285E-1,9.637401E-1,8.47243E-2,1.0700435E-3,5E-1,5E-1,5E-1,2.2774914E-1,3.7446905E-2,5E-1,1.059831E-1,1.1110619E-1,4.039568E-2,7.8814507E-1,-4.0790934E-2,2.2589704E-2,1.0205334E-2,5E-1,1.5020735E-2,-3.9185196E-2,5E-1,5.6276846E-1,3.8606986E-2,1.2516391E-1,9.197518E-3,2.000895E-3,5E-1,2.7284014E-1,2.7154714E-1,6.9712284E-3,5E-1,3.8476235E-1,9.9787533E-1,5.328828E-1,1.2422415E-2,5E-1,-1.45237595E-2,-4.8854966E-3,-3.0540565E-2,-2.1150002E-2,-9.284641E-3,-2.4045682E-2,1.6905716E-2,-1.5452333E-3,8.3655864E-4,-3.2628924E-3,-9.276129E-3,2.0692116E-2,1.8771924E-2,5.81233E-4,3.7650794E-3,-5.073637E-4],"split_indices":[48,47,48,48,49,5,32,16,49,0,16,46,47,0,46,0,0,49,5,0,0,0,49,0,47,0,0,32,48,49,0,26,48,46,46,0,22,0,0,0,0,0,0,0,0,0,0,0,0,0,0,0,0],"split_type":[0,0,0,0,0,0,0,0,0,0,0,0,0,0,0,0,0,0,0,0,0,0,0,0,0,0,0,0,0,0,0,0,0,0,0,0,0,0,0,0,0,0,0,0,0,0,0,0,0,0,0,0,0],"sum_hessian":[5.97E2,3.86E2,2.11E2,3.74E2,1.2E1,1.61E2,5E1,1.68E2,2.06E2,5E0,7E0,1.5E2,1.1E1,4.8E1,2E0,1.67E2,1E0,1.86E2,2E1,1E0,6E0,4.1E1,1.09E2,6E0,5E0,1E0,1E0,1E1,1.76E2,1.8E1,2E0,3.6E1,5E0,9.1E1,1.8E1,3E0,2E0,8E0,2E0,1.55E2,2.1E1,1.2E1,6E0,3.3E1,3E0,3E0,2E0,8.8E1,3E0,1.2E1,6E0,1E0,1E0],"tree_param":{"num_deleted":"0","num_feature":"61","num_nodes":"53","size_leaf_vector":"0"}},{"base_weights":[-1.6827552E-1,-3.1694913E-1,1.0995888E-1,-3.286746E-1,4.8371855E-2,2.1885127E-2,3.823857E-1,-4.0319586E-1,-2.7332208E-1,3.7555456E-1,-2.0306167E-1,1.3643685E-4,2.882952E-1,3.9870906E-1,-1.1691083E-2,-4.087189E-1,2.3472205E-1,-2.8892696E-1,-1.11688696E-1,-2.990356E-1,2.3437798E-1,1.2565286E-1,-4.4366084E-2,3.941067E-1,6.1337758E-2,4.077862E-1,1.2359778E-1,2.0008951E-2,-3.7545577E-2,-4.1377503E-1,-2.6219493E-1,-1.8756717E-1,-3.0168304E-1,-1.397575E-1,1.0330991E-1,9.2247516E-2,-3.7962407E-1,1.4381629E-1,-2.6621688E-2,-7.3991284E-2,1.1116223E-1,7.9209015E-2,-5.073637E-3,-2.5310814E-1,1.7125057E-2,-3.1765568E-1,-2.2826016E-1,-6.3674085E-2,-2.3641293E-1,1.5955846E-1,1.7451584E-2,6.6500604E-2,-1.10870086E-1,8.11976E-2,-9.15853E-2,1.4579614E-1,-4.6505466E-2],"categories":[],"categories_nodes":[],"categories_segments":[],"categories_sizes":[],"default_left":[1,1,1,1,1,1,1,1,1,0,1,1,1,1,1,1,0,1,1,1,0,1,1,0,1,0,0,0,0,0,0,1,1,1,0,0,0,1,1,1,1,0,0,0,0,0,0,0,0,0,0,0,0,0,0,0,0],"id":15,"left_children":[1,3,5,7,9,11,13,15,17,-1,19,21,23,25,27,29,-1,31,33,35,-1,37,39,-1,41,-1,-1,-1,-1,-1,-1,43,45,47,-1,-1,-1,49,51,53,55,-1,-1,-1,-1,-1,-1,-1,-1,-1,-1,-1,-1,-1,-1,-1,-1],"loss_changes":[2.4771786E1,1.6864891E0,5.0063047E0,1.4490242E0,1.1457019E0,9.212178E-1,3.3272696E-1,6.5612984E-1,5.226288E-1,0E0,4.0594983E-1,8.3227277E-1,2.6400286E-1,7.196188E-2,3.2100126E-3,8.563995E-3,0E0,2.0200348E-1,1.4116815E-1,2.557497E-1,0E0,1.11695886E-1,5.150564E-1,0E0,6.3361526E-3,0E0,0E0,0E0,0E0,0E0,0E0,3.3972776E-1,1.3389778E-1,1.2467024E-1,0E0,0E0,0E0,6.683934E-2,4.6599947E-2,2.6136333E-1,1.0507198E-1,0E0,0E0,0E0,0E0,0E0,0E0,0E0,0E0,0E0,0E0,0E0,0E0,0E0,0E0,0E0,0E0],"parents":[2147483647,0,0,1,1,2,2,3,3,4,4,5,5,6,6,7,7,8,8,10,10,11,11,12,12,13,13,14,14,15,15,17,17,18,18,19,19,21,21,22,22,24,24,31,31,32,32,33,33,37,37,38,38,39,39,40,40],"right_children":[2,4,6,8,10,12,14,16,18,-1,20,22,24,26,28,30,-1,32,34,36,-1,38,40,-1,42,-1,-1,-1,-1,-1,-1,44,46,48,-1,-1,-1,50,52,54,56,-1,-1,-1,-1,-1,-1,-1,-1,-1,-1,-1,-1,-1,-1,-1,-1],"split_conditions":[3.4696025E-1,9.8479664E-1,9.637401E-1,7.0092835E-2,1.0700435E-3,5E-1,5E-1,5E-1,2.3945704E-1,3.7555456E-2,5E-1,8.8323355E-3,1.1601886E-1,5E-1,7.8814507E-1,4.2513645E-1,2.3472205E-2,3.219137E-2,5E-1,5E-1,2.3437798E-2,5E-1,5.4330975E-1,3.941067E-2,1.5950964E-1,4.077862E-2,1.2359778E-2,2.000895E-3,-3.7545578E-3,-4.1377503E-2,-2.6219493E-2,5E-1,5E-1,2.7154714E-1,1.0330991E-2,9.224752E-3,-3.7962407E-2,5E-1,5E-1,1.059831E-1,6.7328167E-1,7.920901E-3,-5.073637E-4,-2.5310814E-2,1.7125057E-3,-3.176557E-2,-2.2826016E-2,-6.3674087E-3,-2.3641294E-2,1.5955847E-2,1.7451585E-3,6.6500604E-3,-1.1087009E-2,8.11976E-3,-9.15853E-3,1.4579614E-2,-4.6505467E-3],"split_indices":[48,47,48,48,49,5,32,16,49,0,24,47,47,31,46,47,0,49,5,16,0,26,49,0,46,0,0,0,0,0,0,4,21,49,0,0,0,25,17,46,46,0,0,0,0,0,0,0,0,0,0,0,0,0,0,0,0],"split_type":[0,0,0,0,0,0,0,0,0,0,0,0,0,0,0,0,0,0,0,0,0,0,0,0,0,0,0,0,0,0,0,0,0,0,0,0,0,0,0,0,0,0,0,0,0,0,0,0,0,0,0,0,0,0,0,0,0],"sum_hessian":[5.97E2,3.89E2,2.08E2,3.77E2,1.2E1,1.58E2,5E1,1.58E2,2.19E2,5E0,7E0,1.47E2,1.1E1,4.8E1,2E0,1.57E2,1E0,1.99E2,2E1,6E0,1E0,3.8E1,1.09E2,7E0,4E0,4.6E1,2E0,1E0,1E0,1.5E2,7E0,2.4E1,1.75E2,1.8E1,2E0,1E0,5E0,3.4E1,4E0,9.2E1,1.7E1,3E0,1E0,1.8E1,6E0,1.41E2,3.4E1,1.1E1,7E0,3E1,4E0,2E0,2E0,9E0,8.3E1,1.4E1,3E0],"tree_param":{"num_deleted":"0","num_feature":"61","num_nodes":"57","size_leaf_vector":"0"}},{"base_weights":[-1.6834678E-1,-3.1263253E-1,1.0170007E-1,-3.2647496E-1,1.1391149E-1,1.5300404E-2,3.690696E-1,-3.9820704E-1,-2.7314827E-1,2.8636912E-1,-3.4571046E-1,-9.836684E-3,3.2404944E-1,3.8765407E-1,-5.749951E-2,-4.0369353E-1,2.3433077E-1,-2.8951895E-1,-1.0422979E-1,3.9303136E-1,-9.351995E-2,-5.9520565E-2,1.21277854E-1,3.738031E-1,5.018745E-2,3.9938468E-1,7.465609E-2,-4.098393E-1,-2.3723024E-1,-1.5206961E-1,-3.022773E-1,-1.3429217E-1,1.209085E-1,9.31983E-2,-2.3347822E-1,8.1080206E-2,-1.0284706E-1,1.4629823E-1,-2.1149457E-2,4.0034544E-1,6.7461014E-2,4.1101703E-1,2.1946962E-1,2.0008951E-2,9.197518E-2,-3.405558E-1,-3.8879383E-2,-3.214463E-1,-2.2619115E-1,-1.3010289E-3,-1.9557261E-1,1.138945E-1,-4.7283206E-2,-7.83542E-2,-2.560409E-1,1.6097413E-1,-6.390271E-2,-5.8998484E-2,1.0297236E-1,1.2068635E-1,4.1505617E-1],"categories":[],"categories_nodes":[],"categories_segments":[],"categories_sizes":[],"default_left":[1,1,1,1,1,1,1,1,1,1,0,1,1,1,0,1,0,1,1,0,1,1,1,1,0,1,1,0,0,1,1,1,0,0,0,1,1,1,1,0,0,1,0,0,0,0,0,0,0,0,0,0,0,0,0,0,0,0,0,0,0],"id":16,"left_children":[1,3,5,7,9,11,13,15,17,19,-1,21,23,25,-1,27,-1,29,31,-1,33,35,37,39,-1,41,43,-1,-1,45,47,49,-1,-1,-1,51,53,55,57,-1,-1,59,-1,-1,-1,-1,-1,-1,-1,-1,-1,-1,-1,-1,-1,-1,-1,-1,-1,-1,-1],"loss_changes":[2.3332214E1,2.3399048E0,4.8223867E0,1.3371735E0,1.1294498E0,1.2371948E0,4.2659473E-1,6.463947E-1,5.7819176E-1,4.419545E-1,0E0,9.713318E-1,1.4474738E-1,1.5009546E-1,0E0,6.441498E-2,0E0,3.0475998E-1,1.583691E-1,0E0,1.0015806E-1,6.662467E-1,1.492011E-1,5.4302692E-2,0E0,8.15773E-3,9.989887E-4,0E0,0E0,3.9212048E-1,1.9273758E-1,1.5459093E-1,0E0,0E0,0E0,1.14901334E-1,2.9136693E-1,1.1825776E-1,3.8960446E-2,0E0,0E0,3.33786E-4,0E0,0E0,0E0,0E0,0E0,0E0,0E0,0E0,0E0,0E0,0E0,0E0,0E0,0E0,0E0,0E0,0E0,0E0,0E0],"parents":[2147483647,0,0,1,1,2,2,3,3,4,4,5,5,6,6,7,7,8,8,9,9,11,11,12,12,13,13,15,15,17,17,18,18,20,20,21,21,22,22,23,23,25,25,26,26,29,29,30,30,31,31,35,35,36,36,37,37,38,38,41,41],"right_children":[2,4,6,8,10,12,14,16,18,20,-1,22,24,26,-1,28,-1,30,32,-1,34,36,38,40,-1,42,44,-1,-1,46,48,50,-1,-1,-1,52,54,56,58,-1,-1,60,-1,-1,-1,-1,-1,-1,-1,-1,-1,-1,-1,-1,-1,-1,-1,-1,-1,-1,-1],"split_conditions":[3.4696025E-1,9.8479664E-1,9.637401E-1,7.0092835E-2,9.935242E-1,5E-1,5E-1,5E-1,2.3945704E-1,1.881128E-3,-3.4571048E-2,4.6611252E-1,5E-1,5E-1,-5.749951E-3,4.2513645E-1,2.3433078E-2,2.2703618E-2,5E-1,3.9303135E-2,5E-1,1.059831E-1,5E-1,5E-1,5.018745E-3,5E-1,7.6575136E-1,-4.098393E-2,-2.3723025E-2,3.4872323E-2,5E-1,9.225857E-2,1.209085E-2,9.31983E-3,-2.3347823E-2,5E-1,5E-1,5E-1,8.69975E-1,4.0034544E-2,6.7461017E-3,9.6538067E-1,2.1946963E-2,2.000895E-3,9.197518E-3,-3.405558E-2,-3.8879383E-3,-3.2144632E-2,-2.2619115E-2,-1.301029E-4,-1.9557262E-2,1.138945E-2,-4.7283205E-3,-7.835421E-3,-2.560409E-2,1.6097413E-2,-6.3902712E-3,-5.8998484E-3,1.0297236E-2,1.2068636E-2,4.1505616E-2],"split_indices":[48,47,48,48,47,5,32,16,49,48,0,49,22,31,0,47,0,49,5,0,16,46,35,23,0,30,46,0,0,47,21,46,0,0,0,0,0,45,48,0,0,48,0,0,0,0,0,0,0,0,0,0,0,0,0,0,0,0,0,0,0],"split_type":[0,0,0,0,0,0,0,0,0,0,0,0,0,0,0,0,0,0,0,0,0,0,0,0,0,0,0,0,0,0,0,0,0,0,0,0,0,0,0,0,0,0,0,0,0,0,0,0,0,0,0,0,0,0,0,0,0,0,0,0,0],"sum_hessian":[5.97E2,3.89E2,2.08E2,3.77E2,1.2E1,1.58E2,5E1,1.58E2,2.19E2,9E0,3E0,1.47E2,1.1E1,4.8E1,2E0,1.57E2,1E0,1.99E2,2E1,7E0,2E0,1.07E2,4E1,9E0,2E0,4.6E1,2E0,1.5E2,7E0,1.8E1,1.81E2,1.8E1,2E0,1E0,1E0,2.5E1,8.2E1,3.4E1,6E0,8E0,1E0,4.2E1,4E0,1E0,1E0,6E0,1.2E1,1.42E2,3.9E1,6E0,1.2E1,2E1,5E0,7.2E1,1E1,3.2E1,2E0,5E0,1E0,1E0,4.1E1],"tree_param":{"num_deleted":"0","num_feature":"61","num_nodes":"61","size_leaf_vector":"0"}},{"base_weights":[-1.6810924E-1,-3.0561534E-1,9.699079E-2,-3.2094556E-1,1.6836612E-1,1.2941262E-2,3.5053366E-1,-3.3575052E-1,-8.611496E-2,3.9877132E-1,-2.8003645E-1,-1.3942692E-2,3.3447027E-1,3.6827165E-1,-5.6031585E-2,-3.902683E-1,-2.9095414E-1,-1.2175206E-1,2.0392878E-1,-1.1885405E-2,-3.4410286E-1,-6.712837E-2,1.3618387E-1,3.8045064E-1,6.971228E-2,3.8468903E-1,-1.1691083E-2,-3.9571422E-1,2.350936E-1,-9.4662845E-2,-3.029162E-1,-7.555051E-3,-1.8646786E-1,8.049853E-2,-1.1078552E-1,1.7049877E-1,3.6456518E-2,4.026627E-1,9.0271086E-2,4.056528E-1,1.2746274E-1,-3.7545577E-2,2.0008951E-2,-4.0255454E-1,-2.1713856E-1,-1.5003116E-1,1.3990861E-1,-3.2010722E-1,-2.3087707E-1,-2.405895E-2,6.2238067E-2,-2.1079084E-1,6.486553E-2,1.1447102E-2,1.6734152E-1,-1.3480747E-1,7.805545E-2,1.8612087E-1,-2.1725664E-2,6.7657E-2,-6.929711E-2,1.13126576E-1,4.099242E-1,1.967296E-2,1.4949195E-1],"categories":[],"categories_nodes":[],"categories_segments":[],"categories_sizes":[],"default_left":[1,1,1,1,1,1,1,1,1,0,1,1,1,1,0,1,1,1,0,0,0,1,1,1,0,1,1,1,0,1,1,1,1,1,1,1,1,0,0,1,1,0,0,0,0,0,0,0,0,0,0,0,0,0,0,0,0,0,0,0,0,0,0,0,0],"id":17,"left_children":[1,3,5,7,9,11,13,15,17,-1,19,21,23,25,-1,27,29,31,-1,-1,-1,33,35,37,-1,39,41,43,-1,45,47,49,51,53,55,57,59,-1,-1,61,63,-1,-1,-1,-1,-1,-1,-1,-1,-1,-1,-1,-1,-1,-1,-1,-1,-1,-1,-1,-1,-1,-1,-1,-1],"loss_changes":[2.1828455E1,2.916935E0,4.364046E0,1.2991714E0,1.4547561E0,1.3444791E0,3.8842916E-1,7.6320267E-1,2.7290043E-1,0E0,8.180758E-2,1.1589216E0,1.1956203E-1,3.101592E-1,0E0,6.34531E-1,4.4328308E-1,1.6117892E-1,0E0,0E0,0E0,6.9852996E-1,1.2382531E-1,2.8105974E-2,0E0,2.0173883E-1,3.2100126E-3,1.0558891E-1,0E0,1.8983245E-1,1.6015816E-1,1.186411E-2,9.925756E-2,1.4800024E-1,3.8703763E-1,8.812612E-2,4.0983647E-2,0E0,0E0,7.355213E-3,8.931667E-3,0E0,0E0,0E0,0E0,0E0,0E0,0E0,0E0,0E0,0E0,0E0,0E0,0E0,0E0,0E0,0E0,0E0,0E0,0E0,0E0,0E0,0E0,0E0,0E0],"parents":[2147483647,0,0,1,1,2,2,3,3,4,4,5,5,6,6,7,7,8,8,10,10,11,11,12,12,13,13,15,15,16,16,17,17,21,21,22,22,23,23,25,25,26,26,27,27,29,29,30,30,31,31,32,32,33,33,34,34,35,35,36,36,39,39,40,40],"right_children":[2,4,6,8,10,12,14,16,18,-1,20,22,24,26,-1,28,30,32,-1,-1,-1,34,36,38,-1,40,42,44,-1,46,48,50,52,54,56,58,60,-1,-1,62,64,-1,-1,-1,-1,-1,-1,-1,-1,-1,-1,-1,-1,-1,-1,-1,-1,-1,-1,-1,-1,-1,-1,-1,-1],"split_conditions":[3.6481E-1,9.8479664E-1,9.637401E-1,2.3945704E-1,9.932039E-1,5E-1,5E-1,7.0092835E-2,5E-1,3.987713E-2,5E-1,5.228436E-1,5E-1,5E-1,-5.6031584E-3,5E-1,1.0205334E-2,9.225857E-2,2.0392878E-2,-1.1885405E-3,-3.4410287E-2,1.059831E-1,5E-1,5E-1,6.9712284E-3,5E-1,7.6575136E-1,4.2513645E-1,2.3509359E-2,5E-1,5E-1,5E-1,5E-1,4.022534E-1,5E-1,5E-1,5E-1,4.026627E-2,9.027109E-3,9.6538067E-1,9.9199975E-1,-3.7545578E-3,2.000895E-3,-4.0255453E-2,-2.1713857E-2,-1.5003117E-2,1.3990861E-2,-3.2010723E-2,-2.3087708E-2,-2.405895E-3,6.2238066E-3,-2.1079084E-2,6.4865532E-3,1.1447102E-3,1.6734151E-2,-1.3480747E-2,7.805545E-3,1.8612087E-2,-2.1725665E-3,6.7657004E-3,-6.9297114E-3,1.1312658E-2,4.099242E-2,1.967296E-3,1.4949195E-2],"split_indices":[48,47,48,49,47,5,32,48,5,0,16,49,22,31,0,16,49,46,0,0,0,46,15,23,0,30,46,47,0,32,21,17,42,49,37,45,35,0,0,48,48,0,0,0,0,0,0,0,0,0,0,0,0,0,0,0,0,0,0,0,0,0,0,0,0],"split_type":[0,0,0,0,0,0,0,0,0,0,0,0,0,0,0,0,0,0,0,0,0,0,0,0,0,0,0,0,0,0,0,0,0,0,0,0,0,0,0,0,0,0,0,0,0,0,0,0,0,0,0,0,0,0,0,0,0,0,0,0,0,0,0,0,0],"sum_hessian":[5.97E2,3.93E2,2.04E2,3.81E2,1.2E1,1.54E2,5E1,3.58E2,2.3E1,8E0,4E0,1.43E2,1.1E1,4.8E1,2E0,1.58E2,2E2,2.1E1,2E0,1E0,3E0,1.06E2,3.7E1,9E0,2E0,4.6E1,2E0,1.57E2,1E0,1.2E1,1.88E2,8E0,1.3E1,2.4E1,8.2E1,2.7E1,1E1,8E0,1E0,4.2E1,4E0,1E0,1E0,1.5E2,7E0,1E1,2E0,1.49E2,3.9E1,7E0,1E0,1.2E1,1E0,1.4E1,1E1,7.3E1,9E0,2.5E1,2E0,8E0,2E0,1E0,4.1E1,1E0,3E0],"tree_param":{"num_deleted":"0","num_feature":"61","num_nodes":"65","size_leaf_vector":"0"}},{"base_weights":[-1.6811314E-1,-3.0069005E-1,8.751331E-2,-3.1804106E-1,2.3229189E-1,4.2881873E-3,3.3873647E-1,-3.3377552E-1,-6.942782E-2,3.5850808E-1,-3.079314E-1,-2.3930803E-2,3.425587E-1,3.5608286E-1,-5.749951E-2,-3.8391155E-1,-2.924551E-1,-1.1675116E-1,3.007526E-1,-4.568316E-2,4.0349552E-1,-8.071693E-2,1.0696306E-1,3.8007748E-1,1.0330991E-1,3.8281712E-1,4.425768E-2,-3.8930213E-1,2.3389876E-1,-8.874884E-2,-3.0491927E-1,-5.8608487E-2,-3.0271453E-1,6.653479E-2,-1.22565955E-1,8.2276754E-2,2.2569397E-1,4.0318072E-1,8.607414E-2,3.9312226E-1,-3.5304353E-2,-2.0316735E-2,6.548047E-2,-3.9692557E-1,-1.9674714E-1,-1.71496E-1,7.79458E-2,-3.239684E-1,-2.25862E-1,-1.0258763E-1,4.6447743E-2,1.0888494E-1,-1.07702754E-1,-1.4971179E-1,7.971151E-2,1.05699554E-1,-6.026143E-2,4.0500078E-1,2.1946962E-1,2.5990507E-2,9.197518E-2],"categories":[],"categories_nodes":[],"categories_segments":[],"categories_sizes":[],"default_left":[1,1,1,1,1,1,1,1,1,1,0,1,1,1,0,1,1,1,0,0,0,1,1,1,0,1,1,1,0,1,1,1,0,1,1,1,0,0,0,1,0,0,1,0,0,0,0,0,0,0,0,0,0,0,0,0,0,0,0,0,0],"id":18,"left_children":[1,3,5,7,9,11,13,15,17,19,-1,21,23,25,-1,27,29,31,-1,-1,-1,33,35,37,-1,39,41,43,-1,45,47,49,-1,51,53,55,-1,-1,-1,57,-1,-1,59,-1,-1,-1,-1,-1,-1,-1,-1,-1,-1,-1,-1,-1,-1,-1,-1,-1,-1],"loss_changes":[2.0292633E1,3.7174988E0,4.284704E0,1.4711304E0,9.967997E-1,1.4877739E0,3.7101078E-1,6.31443E-1,4.5554945E-1,2.1845186E-1,0E0,1.0789794E0,6.8449974E-2,3.9154148E-1,0E0,6.205807E-1,4.83284E-1,2.2013131E-1,0E0,0E0,0E0,6.305512E-1,1.1039579E-1,3.3220887E-2,0E0,2.0777512E-1,8.182596E-3,1.5383911E-1,0E0,1.9268301E-1,2.114563E-1,8.793005E-2,0E0,1.8144391E-1,4.4572222E-1,1.3323805E-1,0E0,0E0,0E0,1.8749237E-3,0E0,0E0,1.7946176E-3,0E0,0E0,0E0,0E0,0E0,0E0,0E0,0E0,0E0,0E0,0E0,0E0,0E0,0E0,0E0,0E0,0E0,0E0],"parents":[2147483647,0,0,1,1,2,2,3,3,4,4,5,5,6,6,7,7,8,8,9,9,11,11,12,12,13,13,15,15,16,16,17,17,21,21,22,22,23,23,25,25,26,26,27,27,29,29,30,30,31,31,33,33,34,34,35,35,39,39,42,42],"right_children":[2,4,6,8,10,12,14,16,18,20,-1,22,24,26,-1,28,30,32,-1,-1,-1,34,36,38,-1,40,42,44,-1,46,48,50,-1,52,54,56,-1,-1,-1,58,-1,-1,60,-1,-1,-1,-1,-1,-1,-1,-1,-1,-1,-1,-1,-1,-1,-1,-1,-1,-1],"split_conditions":[3.6481E-1,9.8479664E-1,9.637401E-1,2.3945704E-1,9.93922E-1,5E-1,5E-1,7.0092835E-2,5E-1,5E-1,-3.079314E-2,4.6207893E-1,5E-1,5E-1,-5.749951E-3,5E-1,1.0205334E-2,3.830195E-1,3.0075261E-2,-4.568316E-3,4.0349554E-2,1.059831E-1,7.959575E-1,5E-1,1.0330991E-2,9.92795E-1,9.9199975E-1,4.2513645E-1,2.3389876E-2,5E-1,5E-1,5E-1,-3.0271454E-2,5E-1,5E-1,5.4405034E-1,2.2569397E-2,4.031807E-2,8.607415E-3,5E-1,-3.5304353E-3,-2.0316734E-3,9.439375E-1,-3.969256E-2,-1.9674715E-2,-1.7149601E-2,7.79458E-3,-3.239684E-2,-2.25862E-2,-1.0258763E-2,4.6447744E-3,1.0888494E-2,-1.0770275E-2,-1.4971179E-2,7.971152E-3,1.0569955E-2,-6.0261427E-3,4.050008E-2,2.1946963E-2,2.5990508E-3,9.197518E-3],"split_indices":[48,47,48,49,47,5,31,48,5,16,0,49,22,30,0,16,49,46,0,0,0,46,46,23,0,49,48,47,0,4,21,17,0,0,37,46,0,0,0,29,0,0,46,0,0,0,0,0,0,0,0,0,0,0,0,0,0,0,0,0,0],"split_type":[0,0,0,0,0,0,0,0,0,0,0,0,0,0,0,0,0,0,0,0,0,0,0,0,0,0,0,0,0,0,0,0,0,0,0,0,0,0,0,0,0,0,0,0,0,0,0,0,0,0,0,0,0,0,0,0,0,0,0,0,0],"sum_hessian":[5.97E2,3.93E2,2.04E2,3.81E2,1.2E1,1.54E2,5E1,3.58E2,2.3E1,1E1,2E0,1.43E2,1.1E1,4.8E1,2E0,1.58E2,2E2,2.1E1,2E0,1E0,9E0,1E2,4.3E1,9E0,2E0,4.4E1,4E0,1.57E2,1E0,1.2E1,1.88E2,1.7E1,4E0,2.2E1,7.8E1,3.7E1,6E0,8E0,1E0,4.3E1,1E0,1E0,3E0,1.5E2,7E0,8E0,4E0,1.49E2,3.9E1,1.2E1,5E0,1.8E1,4E0,6.9E1,9E0,3.2E1,5E0,3.9E1,4E0,2E0,1E0],"tree_param":{"num_deleted":"0","num_feature":"61","num_nodes":"61","size_leaf_vector":"0"}},{"base_weights":[-1.6814537E-1,-2.9755962E-1,8.140271E-2,-3.1682655E-1,2.9148102E-1,-9.252641E-3,3.006407E-1,-3.3268172E-1,-6.64587E-2,4.0714335E-1,-2.297745E-1,-4.2782288E-2,3.6872694E-1,3.6132547E-1,1.3896921E-1,-3.8021216E-1,-2.9342788E-1,1.4592597E-2,-3.120447E-1,9.40412E-2,-9.34862E-2,4.0782204E-1,1.15500964E-1,3.7946078E-1,-6.9652894E-3,1.9589034E-1,2.153738E-2,-3.8591754E-1,2.6062006E-1,-9.7755864E-2,-3.0533427E-1,-3.717976E-2,3.031051E-1,2.08734E-2,1.2419398E-1,-5.0617557E-2,-2.2534163E-1,3.9193678E-1,9.07859E-2,8.907855E-3,-1.9355789E-2,2.2116207E-1,-4.1049317E-2,-6.452459E-2,1.5779488E-1,-3.9520818E-1,-1.6231716E-1,-2.3645484E-1,1.8487848E-2,-3.2885697E-1,-2.0949078E-1,1.8428193E-2,-1.19252294E-1,1.5912016E-1,-4.288887E-2,1.9084427E-1,5.343344E-2,6.4622395E-4,-2.5913334E-1,-2.4995793E-1,-8.1808075E-2,1.8438461E-1,4.103889E-1,1.1650589E-1,1.967296E-2,2.4794626E-1,-2.3339972E-2],"categories":[],"categories_nodes":[],"categories_segments":[],"categories_sizes":[],"default_left":[1,1,1,1,1,1,1,1,1,0,0,1,1,1,1,1,1,1,0,1,1,0,0,1,1,1,1,1,0,1,1,1,0,1,1,1,1,1,1,0,0,1,0,0,0,0,0,0,0,0,0,0,0,0,0,0,0,0,0,0,0,0,0,0,0,0,0],"id":19,"left_children":[1,3,5,7,9,11,13,15,17,-1,-1,19,21,23,25,27,29,31,-1,33,35,-1,-1,37,39,41,43,45,-1,47,49,51,-1,53,55,57,59,61,63,-1,-1,65,-1,-1,-1,-1,-1,-1,-1,-1,-1,-1,-1,-1,-1,-1,-1,-1,-1,-1,-1,-1,-1,-1,-1,-1,-1],"loss_changes":[1.933668E1,4.563858E0,4.0771766E0,1.4942894E0,8.7731624E-1,1.8661093E0,5.384469E-1,5.58239E-1,4.8227516E-1,0E0,0E0,9.453521E-1,7.169497E-2,2.8984213E-1,1.1609936E-1,6.8191147E-1,4.384327E-1,2.9507187E-1,0E0,7.903755E-2,5.481876E-1,0E0,0E0,1.120801E-1,7.6244713E-4,8.0933094E-2,9.226777E-2,2.6408005E-1,0E0,2.13969E-1,3.5720825E-1,7.9783656E-2,0E0,1.12603605E-1,1.1242396E-1,8.125547E-1,6.434977E-2,7.3691845E-2,3.1950548E-3,0E0,0E0,7.782376E-2,0E0,0E0,0E0,0E0,0E0,0E0,0E0,0E0,0E0,0E0,0E0,0E0,0E0,0E0,0E0,0E0,0E0,0E0,0E0,0E0,0E0,0E0,0E0,0E0,0E0],"parents":[2147483647,0,0,1,1,2,2,3,3,4,4,5,5,6,6,7,7,8,8,11,11,12,12,13,13,14,14,15,15,16,16,17,17,19,19,20,20,23,23,24,24,25,25,26,26,27,27,29,29,30,30,31,31,33,33,34,34,35,35,36,36,37,37,38,38,41,41],"right_children":[2,4,6,8,10,12,14,16,18,-1,-1,20,22,24,26,28,30,32,-1,34,36,-1,-1,38,40,42,44,46,-1,48,50,52,-1,54,56,58,60,62,64,-1,-1,66,-1,-1,-1,-1,-1,-1,-1,-1,-1,-1,-1,-1,-1,-1,-1,-1,-1,-1,-1,-1,-1,-1,-1,-1,-1],"split_conditions":[3.6481E-1,9.8479664E-1,8.5286975E-1,2.3945704E-1,6.6116E-2,5E-1,3.9673498E-1,7.0092835E-2,3.1112057E-1,4.0714335E-2,-2.297745E-2,8.8323355E-3,5E-1,5E-1,9.005531E-1,5E-1,1.0205334E-2,5E-1,-3.1204471E-2,6.1160266E-1,7.028723E-1,4.0782206E-2,1.1550097E-2,5E-1,9.799715E-1,5E-1,5E-1,4.2513645E-1,2.6062006E-2,8.917248E-2,5E-1,2.7154714E-1,3.031051E-2,4.2510396E-1,6.3688505E-1,5E-1,5E-1,9.6538067E-1,9.9757206E-1,8.907855E-4,-1.9355789E-3,5E-1,-4.104932E-3,-6.4524594E-3,1.5779488E-2,-3.952082E-2,-1.6231716E-2,-2.3645485E-2,1.8487849E-3,-3.2885697E-2,-2.0949079E-2,1.8428194E-3,-1.192523E-2,1.5912017E-2,-4.288887E-3,1.9084428E-2,5.343344E-3,6.46224E-5,-2.5913334E-2,-2.4995795E-2,-8.180807E-3,1.8438462E-2,4.103889E-2,1.1650589E-2,1.967296E-3,2.4794627E-2,-2.3339973E-3],"split_indices":[48,47,48,49,48,5,46,48,46,0,0,47,22,30,49,16,49,5,0,48,46,0,0,29,47,23,32,47,0,48,21,49,0,48,49,0,37,48,47,0,0,32,0,0,0,0,0,0,0,0,0,0,0,0,0,0,0,0,0,0,0,0,0,0,0,0,0],"split_type":[0,0,0,0,0,0,0,0,0,0,0,0,0,0,0,0,0,0,0,0,0,0,0,0,0,0,0,0,0,0,0,0,0,0,0,0,0,0,0,0,0,0,0,0,0,0,0,0,0,0,0,0,0,0,0,0,0,0,0,0,0,0,0,0,0,0,0],"sum_hessian":[5.97E2,3.93E2,2.04E2,3.81E2,1.2E1,1.45E2,5.9E1,3.58E2,2.3E1,1E1,2E0,1.34E2,1.1E1,4.2E1,1.7E1,1.58E2,2E2,1.8E1,5E0,3.6E1,9.8E1,9E0,2E0,4E1,2E0,1.1E1,6E0,1.57E2,1E0,1.2E1,1.88E2,1.6E1,2E0,1.1E1,2.5E1,7.5E1,2.3E1,3.8E1,2E0,1E0,1E0,1E1,1E0,4E0,2E0,1.5E2,7E0,5E0,7E0,1.49E2,3.9E1,1E1,6E0,3E0,8E0,1.2E1,1.3E1,6.1E1,1.4E1,1.9E1,4E0,4E0,3.4E1,1E0,1E0,9E0,1E0],"tree_param":{"num_deleted":"0","num_feature":"61","num_nodes":"67","size_leaf_vector":"0"}},{"base_weights":[-1.5185328E-1,-3.0499157E-1,1.3463378E-1,-3.635036E-1,-2.4018873E-1,4.744097E-2,3.6631563E-1,-3.694821E-1,-2.3755576E-1,-2.6338482E-1,-1.74457E-1,-9.101448E-3,1.3286726E-1,3.7971225E-1,9.388226E-2,-3.8901758E-1,-3.23306E-1,2.8615454E-1,-3.7091327E-1,-2.6541424E-1,6.3088834E-3,-1.8038437E-1,6.3919425E-2,-2.753894E-2,1.6604172E-1,1.4794628E-1,-6.5607086E-2,-9.030928E-2,-3.2560742E-1,-5.6525767E-2,-2.6654285E-1,-1.8868451E-1,1.53128505E-2,-1.1057404E-3,-9.0934396E-2,9.387122E-2,2.7909228E-1,1.5982573E-1,2.0333355E-2,-2.6764932E-1,-5.9137538E-2,-1.9236135E-1,-6.098002E-3,7.487702E-2,-5.1907748E-2,2.3461893E-2,-7.166858E-2,-1.2756725E-1,2.1488262E-2,1.1877759E-1,2.1070203E-2,1.666913E-1,-7.875681E-3,-2.321992E-2,7.16266E-2],"categories":[],"categories_nodes":[],"categories_segments":[],"categories_sizes":[],"default_left":[1,1,1,1,1,1,1,1,1,1,1,1,1,0,0,0,1,0,0,1,0,1,0,1,1,1,0,0,0,0,1,1,1,1,1,1,0,1,1,0,0,0,0,0,0,0,0,0,0,0,0,0,0,0,0],"id":20,"left_children":[1,3,5,7,9,11,13,15,17,19,21,23,25,-1,-1,-1,27,-1,-1,29,-1,31,-1,33,35,37,-1,-1,-1,-1,39,41,43,45,47,49,-1,51,53,-1,-1,-1,-1,-1,-1,-1,-1,-1,-1,-1,-1,-1,-1,-1,-1],"loss_changes":[2.6276604E1,1.3914719E0,4.20463E0,6.508446E-2,2.4069786E-1,7.4023116E-1,1.7238379E-1,4.7424316E-2,9.442269E-1,7.665825E-2,8.500314E-2,3.048883E-1,1.9226718E-1,0E0,0E0,0E0,4.3768883E-3,0E0,0E0,1.6996384E-2,0E0,8.572948E-2,0E0,1.4233774E-1,4.7231495E-2,8.316052E-2,0E0,0E0,0E0,0E0,1.5151978E-2,3.1722784E-2,1.5898516E-2,1.0742877E-1,1.0570027E-1,1.0189787E-2,0E0,6.118381E-2,1.5067098E-2,0E0,0E0,0E0,0E0,0E0,0E0,0E0,0E0,0E0,0E0,0E0,0E0,0E0,0E0,0E0,0E0],"parents":[2147483647,0,0,1,1,2,2,3,3,4,4,5,5,6,6,7,7,8,8,9,9,10,10,11,11,12,12,16,16,19,19,21,21,23,23,24,24,25,25,30,30,31,31,32,32,33,33,34,34,35,35,37,37,38,38],"right_children":[2,4,6,8,10,12,14,16,18,20,22,24,26,-1,-1,-1,28,-1,-1,30,-1,32,-1,34,36,38,-1,-1,-1,-1,40,42,44,46,48,50,-1,52,54,-1,-1,-1,-1,-1,-1,-1,-1,-1,-1,-1,-1,-1,-1,-1,-1],"split_conditions":[3.4696025E-1,1.03489995E-1,9.2622244E-1,5E-1,2.5195268E-1,6.1516845E-1,5E-1,4.3125622E-2,9.928484E-1,5E-1,9.974308E-1,5E-1,5E-1,3.7971225E-2,9.388226E-3,-3.8901757E-2,1.3913659E-3,2.8615454E-2,-3.7091326E-2,1.0428463E-1,6.3088833E-4,5E-1,6.3919425E-3,4.1855085E-1,5E-1,5E-1,-6.560709E-3,-9.030928E-3,-3.2560743E-2,-5.6525767E-3,9.979801E-1,5E-1,5E-1,5E-1,4.895261E-1,5E-1,2.7909229E-2,5E-1,5E-1,-2.6764933E-2,-5.913754E-3,-1.9236136E-2,-6.098002E-4,7.4877026E-3,-5.190775E-3,2.3461895E-3,-7.1668583E-3,-1.2756725E-2,2.1488264E-3,1.1877759E-2,2.1070202E-3,1.666913E-2,-7.875681E-4,-2.321992E-3,7.1626604E-3],"split_indices":[48,48,48,16,48,48,17,48,46,17,46,37,38,0,0,0,46,0,0,48,0,5,0,46,10,35,0,0,0,0,46,4,23,0,48,18,0,30,16,0,0,0,0,0,0,0,0,0,0,0,0,0,0,0,0],"split_type":[0,0,0,0,0,0,0,0,0,0,0,0,0,0,0,0,0,0,0,0,0,0,0,0,0,0,0,0,0,0,0,0,0,0,0,0,0,0,0,0,0,0,0,0,0,0,0,0,0,0,0,0,0,0,0],"sum_hessian":[5.97E2,3.89E2,2.08E2,2.02E2,1.87E2,1.52E2,5.6E1,1.91E2,1.1E1,1.36E2,5.1E1,9.2E1,6E1,5.3E1,3E0,1.29E2,6.2E1,2E0,9E0,1.35E2,1E0,5E1,1E0,8.4E1,8E0,5.6E1,4E0,1E0,6.1E1,1E0,1.34E2,4.8E1,2E0,6E1,2.4E1,6E0,2E0,5.1E1,5E0,1.33E2,1E0,4.7E1,1E0,1E0,1E0,4.5E1,1.5E1,1.8E1,6E0,4E0,2E0,4.9E1,2E0,3E0,2E0],"tree_param":{"num_deleted":"0","num_feature":"61","num_nodes":"55","size_leaf_vector":"0"}},{"base_weights":[-1.5174845E-1,-2.96197E-1,1.3718519E-1,-3.4511346E-1,-2.1859896E-1,5.411747E-2,3.788121E-1,-3.5290653E-1,-1.9243358E-1,-2.422888E-1,-1.1023566E-1,1.1935404E-3,1.23307325E-1,-3.782707E-1,-2.9317445E-1,1.0585206E-1,-3.6990917E-1,-2.441842E-1,-7.863939E-4,-1.2202524E-1,1.1583102E-1,-1.7642628E-2,1.6430773E-1,1.3872172E-1,-5.1387757E-2,-3.8082477E-1,-1.8473141E-1,-2.9733133E-1,-1.4713547E-1,2.1216664E-1,-2.128604E-1,-2.4574038E-1,-2.4052694E-2,-1.3625355E-1,4.670471E-2,3.8654055E-2,-6.2023114E-2,7.413626E-4,2.4596734E-1,1.4739108E-1,-7.5126715E-2,-9.313328E-2,-7.231675E-3,-1.263149E-1,-3.0050364E-1,3.201535E-1,-1.0989043E-1,-2.555936E-1,-1.9321442E-1,-8.985261E-2,-1.9557743E-1,-4.8199594E-3,7.487702E-2,7.2570145E-2,-5.3393196E-2,-7.374141E-2,1.2270743E-1,1.7403841E-2,-1.0614078E-2,1.5622978E-1,-6.672809E-2,9.940803E-3,-2.9374555E-2],"categories":[],"categories_nodes":[],"categories_segments":[],"categories_sizes":[],"default_left":[1,1,1,1,1,1,0,1,1,1,1,1,1,1,1,1,0,1,0,1,0,1,1,1,1,0,0,1,0,1,0,1,0,1,1,1,1,1,0,1,0,0,1,0,0,0,0,0,0,0,0,0,0,0,0,0,0,0,0,0,0,0,0],"id":21,"left_children":[1,3,5,7,9,11,-1,13,15,17,19,21,23,25,27,29,-1,31,-1,33,-1,35,37,39,41,-1,-1,43,-1,45,-1,47,-1,49,51,53,55,57,-1,59,-1,-1,61,-1,-1,-1,-1,-1,-1,-1,-1,-1,-1,-1,-1,-1,-1,-1,-1,-1,-1,-1,-1],"loss_changes":[2.499879E1,1.4390907E0,3.9937792E0,2.2122002E-1,3.763275E-1,5.491227E-1,0E0,2.3756409E-1,7.802935E-1,5.83992E-2,9.409121E-2,2.671292E-1,1.8216181E-1,7.751465E-3,5.6791306E-4,2.4846452E-1,0E0,3.7595272E-2,0E0,7.598525E-2,0E0,1.9727841E-1,1.20028585E-1,1.2230885E-1,1.0386402E-2,0E0,0E0,1.859665E-5,0E0,2.0907147E-1,0E0,1.5826702E-2,0E0,5.6749344E-2,4.7156117E-3,1.1314068E-1,1.0429664E-1,9.4156485E-4,0E0,1.2019181E-1,0E0,0E0,1.8129991E-3,0E0,0E0,0E0,0E0,0E0,0E0,0E0,0E0,0E0,0E0,0E0,0E0,0E0,0E0,0E0,0E0,0E0,0E0,0E0,0E0],"parents":[2147483647,0,0,1,1,2,2,3,3,4,4,5,5,7,7,8,8,9,9,10,10,11,11,12,12,13,13,14,14,15,15,17,17,19,19,21,21,22,22,23,23,24,24,27,27,29,29,31,31,33,33,34,34,35,35,36,36,37,37,39,39,42,42],"right_children":[2,4,6,8,10,12,-1,14,16,18,20,22,24,26,28,30,-1,32,-1,34,-1,36,38,40,42,-1,-1,44,-1,46,-1,48,-1,50,52,54,56,58,-1,60,-1,-1,62,-1,-1,-1,-1,-1,-1,-1,-1,-1,-1,-1,-1,-1,-1,-1,-1,-1,-1,-1,-1],"split_conditions":[3.780401E-1,1.399687E-1,9.637401E-1,5E-1,2.3945704E-1,6.2395823E-1,3.788121E-2,7.0092835E-2,9.930986E-1,3.4696025E-1,5E-1,5E-1,5E-1,5E-1,5E-1,5E-1,-3.699092E-2,5E-1,-7.863939E-5,5E-1,1.1583102E-2,1.1450423E-1,2.5626436E-1,5E-1,7.264098E-1,-3.8082477E-2,-1.847314E-2,7.283126E-2,-1.4713547E-2,5E-1,-2.128604E-2,2.7284014E-1,-2.4052695E-3,2.7154714E-1,5E-1,5E-1,5E-1,4.4302106E-1,2.4596734E-2,5E-1,-7.5126714E-3,-9.313328E-3,6.480106E-1,-1.263149E-2,-3.0050365E-2,3.201535E-2,-1.0989043E-2,-2.555936E-2,-1.9321442E-2,-8.985261E-3,-1.9557742E-2,-4.8199596E-4,7.4877026E-3,7.2570145E-3,-5.33932E-3,-7.3741414E-3,1.2270743E-2,1.7403841E-3,-1.0614077E-3,1.5622978E-2,-6.6728094E-3,9.940803E-4,-2.9374554E-3],"split_indices":[48,48,48,16,49,48,0,48,47,48,30,37,35,20,32,25,0,17,0,5,0,47,47,37,48,0,0,48,0,40,0,48,0,49,23,0,15,48,0,34,0,0,47,0,0,0,0,0,0,0,0,0,0,0,0,0,0,0,0,0,0,0,0],"split_type":[0,0,0,0,0,0,0,0,0,0,0,0,0,0,0,0,0,0,0,0,0,0,0,0,0,0,0,0,0,0,0,0,0,0,0,0,0,0,0,0,0,0,0,0,0,0,0,0,0,0,0,0,0,0,0,0,0,0,0,0,0,0,0],"sum_hessian":[5.97E2,3.98E2,1.99E2,2.42E2,1.56E2,1.49E2,5E1,2.29E2,1.3E1,1.27E2,2.9E1,8.5E1,6.4E1,1.57E2,7.2E1,5E0,8E0,1.26E2,1E0,2.8E1,1E0,7.7E1,8E0,5.9E1,5E0,1.54E2,3E0,6.9E1,3E0,4E0,1E0,1.25E2,1E0,2.6E1,2E0,3.4E1,4.3E1,3E0,5E0,5.7E1,2E0,2E0,3E0,2E0,6.7E1,3E0,1E0,1.02E2,2.3E1,1.6E1,1E1,1E0,1E0,2.5E1,9E0,4.1E1,2E0,1E0,2E0,5.5E1,2E0,2E0,1E0],"tree_param":{"num_deleted":"0","num_feature":"61","num_nodes":"63","size_leaf_vector":"0"}},{"base_weights":[-1.5168223E-1,-2.9770985E-1,1.2153528E-1,-3.5013306E-1,-2.3952042E-1,4.0788792E-2,3.708913E-1,-3.6376336E-1,-1.0287033E-1,-2.4976502E-1,-3.218966E-2,-2.5040718E-2,1.02909684E-1,-3.7666702E-1,-2.9511935E-1,3.330741E-1,-3.624768E-1,-2.5293693E-1,2.0632187E-2,-5.8867708E-2,1.039564E-1,-3.6654033E-2,2.7751014E-1,1.5204269E-1,2.7230775E-3,-3.0657774E-1,-1.2967229E-1,-2.7379575E-1,-2.2768171E-1,3.576824E-2,-4.8199594E-3,-7.766799E-2,-1.595036E-2,-4.8235435E-2,1.8387006E-1,1.2999107E-1,2.8468364E-1,8.105975E-2,-4.5300614E-2,-3.114421E-1,-7.789126E-2,-2.7679232E-1,-9.2633806E-2,-7.418807E-2,-2.3426448E-1,-8.6759776E-2,-1.6104534E-2,-2.5473068E-2,6.3088834E-3,2.850901E-2,-8.880044E-2,1.104115E-1,2.802089E-1,8.803773E-2,3.4573448E-1,1.2198208E-1,-2.1049865E-2,-1.0055766E-1,5.5897273E-2],"categories":[],"categories_nodes":[],"categories_segments":[],"categories_sizes":[],"default_left":[1,1,1,1,1,1,0,1,1,1,1,1,1,0,1,0,0,1,1,1,0,1,0,1,1,1,0,1,1,0,0,1,1,1,0,1,1,1,1,0,0,0,0,0,0,0,0,0,0,0,0,0,0,0,0,0,0,0,0],"id":22,"left_children":[1,3,5,7,9,11,-1,13,15,17,19,21,23,-1,25,-1,-1,27,29,31,-1,33,-1,35,37,39,-1,41,43,-1,-1,45,47,49,-1,51,53,55,57,-1,-1,-1,-1,-1,-1,-1,-1,-1,-1,-1,-1,-1,-1,-1,-1,-1,-1,-1,-1],"loss_changes":[2.3894772E1,1.1058197E0,4.1930084E0,6.467438E-1,3.912773E-1,6.527896E-1,0E0,5.890274E-2,1.4788194E0,1.5874195E-1,4.2440787E-2,2.842341E-1,4.0322834E-1,0E0,2.6596785E-2,0E0,0E0,3.0903816E-2,1.3281364E-3,6.0228966E-3,0E0,2.029714E-1,0E0,1.2386596E-1,1.09008506E-1,1.1338711E-2,0E0,2.4303436E-2,6.9515705E-2,0E0,0E0,1.9611046E-3,1.0085799E-3,2.2979072E-1,0E0,1.1318046E-1,5.3600132E-2,4.8531905E-2,1.0627504E-1,0E0,0E0,0E0,0E0,0E0,0E0,0E0,0E0,0E0,0E0,0E0,0E0,0E0,0E0,0E0,0E0,0E0,0E0,0E0,0E0],"parents":[2147483647,0,0,1,1,2,2,3,3,4,4,5,5,7,7,8,8,9,9,10,10,11,11,12,12,14,14,17,17,18,18,19,19,21,21,23,23,24,24,25,25,27,27,28,28,31,31,32,32,33,33,35,35,36,36,37,37,38,38],"right_children":[2,4,6,8,10,12,-1,14,16,18,20,22,24,-1,26,-1,-1,28,30,32,-1,34,-1,36,38,40,-1,42,44,-1,-1,46,48,50,-1,52,54,56,58,-1,-1,-1,-1,-1,-1,-1,-1,-1,-1,-1,-1,-1,-1,-1,-1,-1,-1,-1,-1],"split_conditions":[3.4696025E-1,1.03489995E-1,9.637401E-1,5E-1,5E-1,5.268784E-1,3.708913E-2,7.0092835E-2,9.930986E-1,5E-1,5E-1,5E-1,3.877076E-1,-3.7666705E-2,5E-1,3.330741E-2,-3.624768E-2,1.9303668E-1,5E-1,3.239835E-1,1.03956405E-2,9.901632E-1,2.7751014E-2,5E-1,4.1895562E-1,5E-1,-1.2967229E-2,5E-1,3.7388235E-2,3.5768242E-3,-4.8199596E-4,5E-1,5E-1,1.4312449E-1,1.8387007E-2,8.399893E-1,2.018278E-1,8.025316E-1,5E-1,-3.1144211E-2,-7.789126E-3,-2.7679233E-2,-9.26338E-3,-7.418807E-3,-2.3426449E-2,-8.675978E-3,-1.6104535E-3,-2.5473067E-3,6.3088833E-4,2.850901E-3,-8.880044E-3,1.104115E-2,2.8020889E-2,8.803773E-3,3.4573447E-2,1.2198209E-2,-2.1049865E-3,-1.0055766E-2,5.5897273E-3],"split_indices":[48,48,48,16,17,48,0,48,47,5,30,10,46,0,32,0,0,48,23,46,0,46,0,5,49,30,0,29,49,0,0,43,36,46,0,48,46,48,16,0,0,0,0,0,0,0,0,0,0,0,0,0,0,0,0,0,0,0,0],"split_type":[0,0,0,0,0,0,0,0,0,0,0,0,0,0,0,0,0,0,0,0,0,0,0,0,0,0,0,0,0,0,0,0,0,0,0,0,0,0,0,0,0,0,0,0,0,0,0,0,0,0,0,0,0,0,0,0,0,0,0],"sum_hessian":[5.97E2,3.89E2,2.08E2,2.02E2,1.87E2,1.58E2,5E1,1.91E2,1.1E1,1.78E2,9E0,7.7E1,8.1E1,1.57E2,3.4E1,4E0,7E0,1.76E2,2E0,8E0,1E0,7.5E1,2E0,5.4E1,2.7E1,3.1E1,3E0,9.1E1,8.5E1,1E0,1E0,5E0,3E0,7.2E1,3E0,4.8E1,6E0,1E1,1.7E1,3E1,1E0,8.9E1,2E0,4E0,8.1E1,4E0,1E0,2E0,1E0,2.5E1,4.7E1,4.4E1,4E0,2E0,4E0,7E0,3E0,1.1E1,6E0],"tree_param":{"num_deleted":"0","num_feature":"61","num_nodes":"59","size_leaf_vector":"0"}},{"base_weights":[-1.5190405E-1,-2.9287145E-1,1.1187201E-1,-3.4367153E-1,-2.3646036E-1,3.0402139E-2,3.6367276E-1,-3.6172524E-1,-5.1984694E-2,-2.5408047E-1,-9.195945E-2,1.3307413E-1,-6.3997796E-3,3.7145382E-1,1.1535791E-1,-3.744793E-1,-2.941792E-1,2.31642E-1,-3.28185E-1,-2.6342627E-1,-1.8741903E-1,-1.15731224E-1,2.0362395E-1,2.3395613E-2,1.622775E-1,-3.0593088E-2,2.0985721E-1,-3.075502E-1,-1.1366648E-1,3.4418377E-1,-2.218043E-1,-1.1787263E-1,-2.67814E-1,5.9256356E-2,-2.1253753E-1,-1.353095E-1,4.6841603E-2,5.6226928E-2,-7.863085E-3,1.762317E-1,1.7051704E-2,-6.4921424E-2,1.1308113E-1,6.0496736E-2,3.491349E-1,-3.1577182E-1,-1.2281715E-1,-3.0633375E-2,-1.3113306E-1,-2.7211165E-1,-1.6342625E-1,-2.8212428E-2,1.1709696E-1,-1.6843595E-1,-3.0206907E-1,-7.641172E-2,-2.067425E-1,1.00409545E-1,-6.6980026E-3,4.9951496E-3,-3.6077127E-2,1.9288407E-1,5.4392986E-2,-3.7514467E-3,3.973058E-2,-7.794678E-2,1.6428377E-1,5.4556333E-2,2.503004E-1,9.167265E-2,-6.3279375E-2],"categories":[],"categories_nodes":[],"categories_segments":[],"categories_sizes":[],"default_left":[1,1,1,1,1,1,1,1,1,1,1,1,1,0,0,0,1,1,0,1,1,1,0,1,1,1,1,1,1,0,0,0,1,1,1,1,0,1,1,1,1,1,1,1,0,0,0,0,0,0,0,0,0,0,0,0,0,0,0,0,0,0,0,0,0,0,0,0,0,0,0],"id":23,"left_children":[1,3,5,7,9,11,13,15,17,19,21,23,25,-1,-1,-1,27,29,-1,31,33,35,-1,37,39,41,43,45,47,-1,-1,-1,49,51,53,55,-1,57,59,61,63,65,67,69,-1,-1,-1,-1,-1,-1,-1,-1,-1,-1,-1,-1,-1,-1,-1,-1,-1,-1,-1,-1,-1,-1,-1,-1,-1,-1,-1],"loss_changes":[2.2268696E1,1.0363541E0,4.2764063E0,1.0501976E0,4.5530605E-1,6.0163736E-1,5.568981E-2,5.4380417E-2,1.0944124E0,5.4670334E-2,1.7814961E-1,1.3072866E-1,6.2379295E-1,0E0,0E0,0E0,4.9519062E-2,4.335629E-1,0E0,6.03981E-2,1.6130096E-1,7.317892E-2,0E0,1.0704758E-2,6.3869774E-2,5.350757E-1,2.2850937E-1,9.819508E-3,1.7841682E-3,0E0,0E0,0E0,1.788807E-2,1.8481333E-2,3.5987377E-2,6.414011E-2,0E0,1.4573483E-2,2.3569071E-3,5.037558E-2,2.0362153E-3,2.7254206E-1,1.5498987E-1,3.2812823E-2,0E0,0E0,0E0,0E0,0E0,0E0,0E0,0E0,0E0,0E0,0E0,0E0,0E0,0E0,0E0,0E0,0E0,0E0,0E0,0E0,0E0,0E0,0E0,0E0,0E0,0E0,0E0],"parents":[2147483647,0,0,1,1,2,2,3,3,4,4,5,5,6,6,7,7,8,8,9,9,10,10,11,11,12,12,16,16,17,17,19,19,20,20,21,21,23,23,24,24,25,25,26,26,27,27,28,28,32,32,33,33,34,34,35,35,37,37,38,38,39,39,40,40,41,41,42,42,43,43],"right_children":[2,4,6,8,10,12,14,16,18,20,22,24,26,-1,-1,-1,28,30,-1,32,34,36,-1,38,40,42,44,46,48,-1,-1,-1,50,52,54,56,-1,58,60,62,64,66,68,70,-1,-1,-1,-1,-1,-1,-1,-1,-1,-1,-1,-1,-1,-1,-1,-1,-1,-1,-1,-1,-1,-1,-1,-1,-1,-1,-1],"split_conditions":[3.4696025E-1,1.03489995E-1,9.637401E-1,6.0049963E-1,2.3945704E-1,1.059831E-1,5E-1,7.0092835E-2,1.003105E-3,2.7284014E-1,5E-1,4.1066104E-1,5E-1,3.7145384E-2,1.1535792E-2,-3.744793E-2,5E-1,5E-1,-3.28185E-2,1.1255661E-2,7.657164E-2,5E-1,2.0362396E-2,5E-1,5E-1,5.415679E-1,1.7083812E-1,5E-1,1.01953775E-1,3.4418378E-2,-2.218043E-2,-1.1787264E-2,5E-1,5E-1,3.820746E-1,2.7154714E-1,4.6841605E-3,3.913742E-1,5E-1,5E-1,3.4424253E-2,9.867213E-1,8.925818E-1,1.5950964E-1,3.491349E-2,-3.157718E-2,-1.2281715E-2,-3.0633376E-3,-1.3113307E-2,-2.7211165E-2,-1.6342625E-2,-2.821243E-3,1.1709697E-2,-1.6843595E-2,-3.0206908E-2,-7.6411716E-3,-2.067425E-2,1.0040955E-2,-6.6980027E-4,4.99515E-4,-3.6077127E-3,1.9288408E-2,5.4392987E-3,-3.7514468E-4,3.973058E-3,-7.794678E-3,1.6428377E-2,5.455633E-3,2.5030041E-2,9.167265E-3,-6.327938E-3],"split_indices":[48,48,48,47,49,46,32,48,49,48,30,48,5,0,0,0,32,24,0,49,49,5,0,0,26,49,46,33,46,0,0,0,28,4,47,49,0,48,41,24,46,47,49,46,0,0,0,0,0,0,0,0,0,0,0,0,0,0,0,0,0,0,0,0,0,0,0,0,0,0,0],"split_type":[0,0,0,0,0,0,0,0,0,0,0,0,0,0,0,0,0,0,0,0,0,0,0,0,0,0,0,0,0,0,0,0,0,0,0,0,0,0,0,0,0,0,0,0,0,0,0,0,0,0,0,0,0,0,0,0,0,0,0,0,0,0,0,0,0,0,0,0,0,0,0],"sum_hessian":[5.97E2,3.89E2,2.08E2,2.02E2,1.87E2,1.58E2,5E1,1.9E2,1.2E1,1.66E2,2.1E1,4.1E1,1.17E2,4.8E1,2E0,1.56E2,3.4E1,6E0,6E0,1.43E2,2.3E1,2E1,1E0,9E0,3.2E1,1.06E2,1.1E1,3.1E1,3E0,5E0,1E0,5E0,1.38E2,2E0,2.1E1,1.8E1,2E0,4E0,5E0,2.9E1,3E0,8.6E1,2E1,6E0,5E0,2.9E1,2E0,1E0,2E0,1.31E2,7E0,1E0,1E0,1.6E1,5E0,1.1E1,7E0,2E0,2E0,4E0,1E0,2.5E1,4E0,2E0,1E0,8.2E1,4E0,1.5E1,5E0,5E0,1E0],"tree_param":{"num_deleted":"0","num_feature":"61","num_nodes":"71","size_leaf_vector":"0"}},{"base_weights":[-1.5154651E-1,-2.9027328E-1,1.0241011E-1,-2.9912767E-1,-1.2529149E-2,2.2489399E-2,3.5426787E-1,-3.551515E-1,-2.3840788E-1,3.4326327E-1,-2.7780733E-1,4.3106596E-3,2.493644E-1,3.6438555E-1,7.092329E-2,-3.592367E-1,2.146022E-1,-2.5269523E-1,-1.1615795E-1,1.4269698E-1,-3.5826465E-1,1.2077314E-1,-4.019602E-2,3.5297814E-1,8.692098E-2,3.7058982E-1,1.4572315E-1,8.7376416E-2,1.9008517E-2,-3.7903294E-1,-3.157009E-1,-1.313545E-1,-2.6146832E-1,-1.3865848E-1,6.506479E-2,1.3872649E-1,-1.0068049E-2,-7.2541825E-2,1.1854136E-1,1.14907324E-1,2.0632187E-2,3.812267E-1,2.0499489E-1,-3.8046303E-1,-9.942008E-2,-3.2489932E-1,-1.3850036E-1,-1.6489097E-1,1.3554169E-1,-2.7624035E-1,-2.0027617E-1,-8.427597E-2,-2.1984623E-1,1.5264864E-1,-1.4293417E-2,3.6074878E-3,-3.9222866E-2,-8.35894E-2,1.9140206E-1,7.1848564E-2,2.756772E-1,3.576824E-2,-4.8199594E-3],"categories":[],"categories_nodes":[],"categories_segments":[],"categories_sizes":[],"default_left":[1,1,1,1,1,1,1,1,1,0,1,1,1,1,1,1,0,1,1,0,0,1,1,0,1,1,0,0,0,1,1,1,1,1,0,1,1,1,1,0,1,0,0,0,0,0,0,0,0,0,0,0,0,0,0,0,0,0,0,0,0,0,0],"id":24,"left_children":[1,3,5,7,9,11,13,15,17,-1,19,21,23,25,27,29,-1,31,33,-1,-1,35,37,-1,39,41,-1,-1,-1,43,45,47,49,51,-1,53,55,57,59,-1,61,-1,-1,-1,-1,-1,-1,-1,-1,-1,-1,-1,-1,-1,-1,-1,-1,-1,-1,-1,-1,-1,-1],"loss_changes":[2.1097614E1,9.479828E-1,4.259307E0,1.1909866E0,1.3223525E0,6.6706187E-1,1.20363235E-1,5.263119E-1,2.902813E-1,0E0,3.217845E-1,7.875417E-1,1.7129529E-1,1.2471676E-2,9.015836E-4,4.5812607E-2,0E0,1.3917351E-1,9.465161E-2,0E0,0E0,1.0005635E-1,5.73393E-1,0E0,8.7602995E-3,4.6372414E-3,0E0,0E0,0E0,1.2956619E-2,6.257868E-2,1.3870947E-1,8.117008E-2,6.5360904E-2,0E0,8.1005394E-2,2.5337427E-3,2.842655E-1,1.1959812E-1,0E0,1.3281364E-3,0E0,0E0,0E0,0E0,0E0,0E0,0E0,0E0,0E0,0E0,0E0,0E0,0E0,0E0,0E0,0E0,0E0,0E0,0E0,0E0,0E0,0E0],"parents":[2147483647,0,0,1,1,2,2,3,3,4,4,5,5,6,6,7,7,8,8,10,10,11,11,12,12,13,13,14,14,15,15,17,17,18,18,21,21,22,22,24,24,25,25,29,29,30,30,31,31,32,32,33,33,35,35,36,36,37,37,38,38,40,40],"right_children":[2,4,6,8,10,12,14,16,18,-1,20,22,24,26,28,30,-1,32,34,-1,-1,36,38,-1,40,42,-1,-1,-1,44,46,48,50,52,-1,54,56,58,60,-1,62,-1,-1,-1,-1,-1,-1,-1,-1,-1,-1,-1,-1,-1,-1,-1,-1,-1,-1,-1,-1,-1,-1],"split_conditions":[3.4286386E-1,9.8428285E-1,9.637401E-1,1.03489995E-1,1.0700435E-3,5E-1,5E-1,5E-1,2.2774914E-1,3.4326326E-2,5E-1,1.059831E-1,1.1110619E-1,5E-1,7.8814507E-1,3.805991E-2,2.146022E-2,3.219137E-2,5E-1,1.42696975E-2,-3.5826467E-2,5E-1,5.6276846E-1,3.5297815E-2,1.2516391E-1,5E-1,1.4572315E-2,8.737641E-3,1.9008517E-3,8.2479215E-1,5E-1,5E-1,5E-1,2.7154714E-1,6.506479E-3,5E-1,3.9660746E-1,9.9787533E-1,8.8086367E-1,1.1490732E-2,5E-1,3.812267E-2,2.0499488E-2,-3.8046304E-2,-9.942008E-3,-3.2489933E-2,-1.3850036E-2,-1.6489098E-2,1.355417E-2,-2.7624035E-2,-2.0027617E-2,-8.427597E-3,-2.1984624E-2,1.5264864E-2,-1.4293417E-3,3.607488E-4,-3.922287E-3,-8.35894E-3,1.9140206E-2,7.1848566E-3,2.756772E-2,3.5768242E-3,-4.8199596E-4],"split_indices":[48,47,48,48,49,5,32,16,49,0,16,46,47,31,46,48,0,49,5,0,0,0,49,0,47,30,0,0,0,46,32,33,21,49,0,26,48,46,47,0,22,0,0,0,0,0,0,0,0,0,0,0,0,0,0,0,0,0,0,0,0,0,0],"split_type":[0,0,0,0,0,0,0,0,0,0,0,0,0,0,0,0,0,0,0,0,0,0,0,0,0,0,0,0,0,0,0,0,0,0,0,0,0,0,0,0,0,0,0,0,0,0,0,0,0,0,0,0,0,0,0,0,0,0,0,0,0,0,0],"sum_hessian":[5.97E2,3.86E2,2.11E2,3.74E2,1.2E1,1.61E2,5E1,1.92E2,1.82E2,5E0,7E0,1.5E2,1.1E1,4.8E1,2E0,1.91E2,1E0,1.62E2,2E1,1E0,6E0,4.1E1,1.09E2,6E0,5E0,4.6E1,2E0,1E0,1E0,1.26E2,6.5E1,1.2E1,1.5E2,1.8E1,2E0,3.6E1,5E0,9.1E1,1.8E1,3E0,2E0,4.2E1,4E0,1.25E2,1E0,6.1E1,4E0,1.1E1,1E0,1.18E2,3.2E1,1.2E1,6E0,3.3E1,3E0,4E0,1E0,8.8E1,3E0,1.5E1,3E0,1E0,1E0],"tree_param":{"num_deleted":"0","num_feature":"61","num_nodes":"63","size_leaf_vector":"0"}},{"base_weights":[-1.5143019E-1,-2.8022903E-1,1.1018479E-1,-2.9041144E-1,4.6015866E-2,2.847095E-2,3.4515464E-1,-3.524367E-1,-2.2817141E-1,3.4425837E-1,-1.8341798E-1,-1.6515297E-1,5.6550823E-2,3.599226E-1,-1.1106521E-2,-3.5659507E-1,2.2298595E-1,-2.4907601E-1,-1.03499904E-1,-2.7323744E-1,2.2265908E-1,-1.9692552E-1,6.99425E-2,3.5220124E-2,2.633677E-1,3.6787516E-1,1.1535791E-1,1.9008517E-2,-3.56683E-2,-3.6564738E-1,-2.7002516E-1,-6.4993046E-2,-2.5667593E-1,-4.4949368E-2,-2.1610603E-1,8.763513E-2,-3.4798872E-1,-1.0153146E-1,-2.7043897E-1,-2.8503388E-3,1.0776408E-1,5.3042475E-2,-1.6434775E-1,3.596224E-1,5.6686677E-2,-2.9477006E-1,1.248087E-1,-8.673616E-2,1.5752514E-4,-2.5966206E-1,-1.2852897E-2,-1.5602094E-1,9.88066E-3,-2.4911487E-1,4.0486783E-2,-1.4217448E-1,2.714608E-2,-2.946371E-1,-3.842692E-2,1.2909786E-1,1.5828654E-2,-8.861246E-2,-2.2236054E-1,7.3268324E-2,-4.8199594E-3],"categories":[],"categories_nodes":[],"categories_segments":[],"categories_sizes":[],"default_left":[1,1,1,1,1,1,1,1,1,0,1,1,1,1,1,1,0,1,1,1,0,1,1,1,1,0,0,0,0,0,1,1,1,1,1,0,0,1,1,0,0,1,1,0,1,0,0,0,0,0,0,0,0,0,0,0,0,0,0,0,0,0,0,0,0],"id":25,"left_children":[1,3,5,7,9,11,13,15,17,-1,19,21,23,25,27,29,-1,31,33,35,-1,37,39,41,43,-1,-1,-1,-1,-1,45,47,49,51,53,-1,-1,55,57,-1,-1,59,61,-1,63,-1,-1,-1,-1,-1,-1,-1,-1,-1,-1,-1,-1,-1,-1,-1,-1,-1,-1,-1,-1],"loss_changes":[2.0180912E1,1.3454685E0,3.7918303E0,1.421299E0,9.526932E-1,8.14006E-1,2.7232075E-1,5.4133034E-1,4.8764515E-1,0E0,3.526277E-1,1.5569556E-1,5.6422555E-1,5.2863598E-2,2.8970381E-3,5.1729202E-2,0E0,2.1835136E-1,1.880807E-1,2.1932584E-1,0E0,9.175861E-2,8.566587E-3,4.3197292E-1,2.1834236E-1,0E0,0E0,0E0,0E0,0E0,2.5173235E-1,1.1346273E-2,1.13884926E-1,1.294328E-1,9.47842E-2,0E0,0E0,5.0928086E-2,3.9206326E-2,0E0,0E0,3.0929086E-1,2.4232239E-2,0E0,5.4525565E-3,0E0,0E0,0E0,0E0,0E0,0E0,0E0,0E0,0E0,0E0,0E0,0E0,0E0,0E0,0E0,0E0,0E0,0E0,0E0,0E0],"parents":[2147483647,0,0,1,1,2,2,3,3,4,4,5,5,6,6,7,7,8,8,10,10,11,11,12,12,13,13,14,14,15,15,17,17,18,18,19,19,21,21,22,22,23,23,24,24,30,30,31,31,32,32,33,33,34,34,37,37,38,38,41,41,42,42,44,44],"right_children":[2,4,6,8,10,12,14,16,18,-1,20,22,24,26,28,30,-1,32,34,36,-1,38,40,42,44,-1,-1,-1,-1,-1,46,48,50,52,54,-1,-1,56,58,-1,-1,60,62,-1,64,-1,-1,-1,-1,-1,-1,-1,-1,-1,-1,-1,-1,-1,-1,-1,-1,-1,-1,-1,-1],"split_conditions":[3.8281304E-1,9.8479664E-1,9.637401E-1,1.03489995E-1,1.0700435E-3,2.5874633E-1,5E-1,5E-1,2.3945704E-1,3.4425836E-2,5E-1,9.939269E-1,5E-1,5E-1,7.8814507E-1,5E-1,2.2298595E-2,2.2703618E-2,2.9623097E-1,5E-1,2.226591E-2,2.0243466E-1,5E-1,5E-1,1.1601886E-1,3.6787517E-2,1.1535792E-2,1.9008517E-3,-3.56683E-3,-3.6564738E-2,5E-1,7.466607E-1,3.4696025E-1,2.8205454E-1,5E-1,8.7635135E-3,-3.479887E-2,5E-1,5E-1,-2.850339E-4,1.0776408E-2,1.17863044E-1,3.7292916E-1,3.596224E-2,1.5950964E-1,-2.9477006E-2,1.248087E-2,-8.673616E-3,1.5752514E-5,-2.5966207E-2,-1.2852898E-3,-1.5602094E-2,9.880661E-4,-2.4911487E-2,4.0486786E-3,-1.4217448E-2,2.714608E-3,-2.9463712E-2,-3.8426921E-3,1.2909787E-2,1.5828655E-3,-8.8612465E-3,-2.2236055E-2,7.3268325E-3,-4.8199596E-4],"split_indices":[48,47,48,48,49,49,32,16,49,0,24,46,5,31,46,4,0,49,49,16,0,49,30,0,47,0,0,0,0,0,33,46,48,48,27,0,0,18,31,0,0,46,49,0,46,0,0,0,0,0,0,0,0,0,0,0,0,0,0,0,0,0,0,0,0],"split_type":[0,0,0,0,0,0,0,0,0,0,0,0,0,0,0,0,0,0,0,0,0,0,0,0,0,0,0,0,0,0,0,0,0,0,0,0,0,0,0,0,0,0,0,0,0,0,0,0,0,0,0,0,0,0,0,0,0,0,0,0,0,0,0,0,0],"sum_hessian":[5.97E2,4E2,1.97E2,3.88E2,1.2E1,1.47E2,5E1,1.92E2,1.96E2,5E0,7E0,1.8E1,1.29E2,4.8E1,2E0,1.91E2,1E0,1.67E2,2.9E1,6E0,1E0,1.6E1,2E0,1.18E2,1.1E1,4.6E1,2E0,1E0,1E0,1.7E2,2.1E1,7E0,1.6E2,2E1,9E0,1E0,5E0,8E0,8E0,1E0,1E0,1.09E2,9E0,7E0,4E0,2E1,1E0,5E0,2E0,1.58E2,2E0,6E0,1.4E1,8E0,1E0,6E0,2E0,7E0,1E0,3.5E1,7.4E1,5E0,4E0,3E0,1E0],"tree_param":{"num_deleted":"0","num_feature":"61","num_nodes":"65","size_leaf_vector":"0"}},{"base_weights":[-1.5156357E-1,-2.8175613E-1,9.210467E-2,-2.94202E-1,1.0180528E-1,1.4016436E-2,3.3375028E-1,-3.5864592E-1,-2.4628936E-1,2.6025972E-1,-3.1978217E-1,-8.93865E-3,2.9596114E-1,3.5065842E-1,-5.3666215E-2,-3.6373374E-1,2.2261423E-1,-2.6103058E-1,-9.416855E-2,3.5864115E-1,-8.884395E-2,-5.3816453E-2,1.0949407E-1,3.4110087E-1,4.6841603E-2,3.6105305E-1,7.092329E-2,-3.6912683E-1,-2.164726E-1,-1.3885966E-1,-2.7235046E-1,-1.2189912E-1,1.12847924E-1,8.853838E-2,-2.218043E-1,7.322839E-2,-9.2965245E-2,1.3194574E-1,-1.8406315E-2,3.647592E-1,6.408796E-2,3.7116122E-1,2.0191205E-1,1.9008517E-2,8.7376416E-2,-3.1136528E-1,-3.5290506E-2,-2.6103318E-1,-3.993955E-1,-1.1895001E-3,-1.7751975E-1,1.8750966E-2,1.4581116E-1,-1.1214691E-1,5.8275614E-2,1.4536451E-1,-5.9642535E-2,-5.4081947E-2,9.782374E-2,3.831403E-1,2.0349222E-1],"categories":[],"categories_nodes":[],"categories_segments":[],"categories_sizes":[],"default_left":[1,